#include <math.h> 
 #include <string.h> 
#include "./include/k2c_include.h" 
#include "./include/k2c_tensor_include.h" 

#define K2C_MAX_NDIM 5
// #include "./include/k2c_activations.h"
// #include "./include/k2c_dense.h"

// // void k2c_relu_func(float * x, const size_t size);

// void k2c_linear_func(float * x, const size_t size) {

// }

k2c_tensor fc1_bias;
k2c_tensor fc1_kernel;

k2c_tensor fc2_bias;
k2c_tensor fc2_kernel;

k2c_tensor fc3_bias;
k2c_tensor fc3_kernel;

k2c_tensor output_kernel;
k2c_tensor output_output;
k2c_tensor output_bias;
k2c_tensor fc3_output;
k2c_tensor fc2_output;
k2c_tensor fc1_output;



float fc1_kernel_array[1024] = {
+3.94244075e-01f,-3.23856473e-01f,-3.64515543e-01f,-3.46345335e-01f,+2.46580899e-01f,
+4.08912480e-01f,+1.87426239e-01f,-2.20462605e-01f,+3.66174519e-01f,+3.70138377e-01f,
-4.29413468e-01f,-3.50825161e-01f,+5.03024347e-02f,-3.73525172e-01f,-2.08424792e-01f,
-3.15423548e-01f,+6.40782192e-02f,+1.31726757e-01f,+1.49273396e-01f,+1.11373998e-01f,
+3.91150594e-01f,-1.08934097e-01f,-2.62070119e-01f,-2.28859559e-01f,-3.22627366e-01f,
-5.21837585e-02f,+1.29552200e-01f,-2.56671458e-01f,-1.71670228e-01f,-1.06763288e-01f,
-3.99462700e-01f,+2.40293235e-01f,-3.40011746e-01f,+7.62869194e-02f,-3.30009699e-01f,
-2.62261659e-01f,-1.19908921e-01f,-2.78597087e-01f,+4.78010923e-02f,-3.96825194e-01f,
+2.61402756e-01f,+3.15017194e-01f,+3.13969940e-01f,+2.02877179e-01f,+3.48966777e-01f,
-2.05354422e-01f,-3.38070584e-03f,+2.81790439e-02f,+3.36885631e-01f,-3.76634419e-01f,
+3.19397330e-01f,-5.66241145e-02f,-2.04180732e-01f,-3.66069436e-01f,-2.19310790e-01f,
-1.67684466e-01f,+3.86940055e-02f,-3.15421522e-01f,-2.07403809e-01f,-3.20238709e-01f,
-9.52975228e-02f,-8.14891756e-02f,-4.10791188e-01f,-1.76125705e-01f,-1.55733556e-01f,
+1.00124456e-01f,+1.27918586e-01f,+1.56108394e-01f,+1.15740262e-01f,-3.78759831e-01f,
-2.90621966e-01f,+8.71004984e-02f,-1.27130635e-02f,-1.88836440e-01f,+3.17032754e-01f,
-6.14624172e-02f,-4.34267521e-02f,+4.00561959e-01f,+4.20689583e-01f,+2.81288058e-01f,
-9.08733904e-02f,+3.54655296e-01f,+2.99355567e-01f,-3.15343201e-01f,+2.09963992e-01f,
+3.92183155e-01f,-3.62948865e-01f,-1.74375713e-01f,+3.25822681e-01f,+1.80141516e-02f,
-3.44781220e-01f,+2.49277905e-01f,-2.48907983e-01f,+1.11585528e-01f,+3.15497488e-01f,
+3.03841978e-01f,-9.22848210e-02f,+1.43553346e-01f,-1.06949300e-01f,+9.91228819e-02f,
-2.90576369e-01f,+2.56432414e-01f,-1.31550375e-02f,+3.51250231e-01f,+2.17533439e-01f,
-4.03627276e-01f,-1.41147196e-01f,-1.29864305e-01f,-6.78110775e-03f,+1.92317337e-01f,
+7.00233802e-02f,+3.19050819e-01f,+6.13324717e-02f,-3.23834300e-01f,+4.06999201e-01f,
+3.50601003e-02f,+4.09084141e-01f,-1.79750800e-01f,+1.59196794e-01f,-3.11081499e-01f,
+3.83607626e-01f,-3.01898003e-01f,+4.10527527e-01f,+3.22633177e-01f,-2.77819812e-01f,
-2.33746290e-01f,-3.47429633e-01f,-1.02995701e-01f,+1.90618008e-01f,-2.92714685e-01f,
+3.07218567e-03f,+3.49203534e-02f,+1.94224790e-02f,+9.77354571e-02f,+1.40653938e-01f,
+3.49921376e-01f,+2.31266692e-02f,-1.92116529e-01f,+4.35139000e-01f,+7.25131556e-02f,
+3.54371041e-01f,+3.41215283e-02f,-2.76320815e-01f,-2.30825692e-01f,+4.26855862e-01f,
-5.80325983e-02f,-6.45953789e-02f,+2.76248068e-01f,-1.19415973e-03f,+4.58881110e-01f,
+1.97300434e-01f,-4.03880030e-01f,+1.29153579e-01f,+2.86342371e-02f,-1.10219268e-03f,
+1.70592293e-01f,+3.57149929e-01f,-3.60359848e-01f,-3.20325166e-01f,+2.45315015e-01f,
-2.62296200e-01f,-1.31671363e-02f,-3.77057463e-01f,-1.20980076e-01f,+4.19921055e-02f,
+1.42746642e-01f,-4.17220205e-01f,-1.61277980e-01f,+1.21610656e-01f,+3.95087212e-01f,
+8.67064595e-02f,+3.60801905e-01f,-2.20826864e-01f,-2.58246928e-01f,-2.53095806e-01f,
-3.09640735e-01f,-1.31394751e-02f,-1.53794557e-01f,+3.20003569e-01f,-3.87869149e-01f,
-4.25479487e-02f,-7.28901327e-02f,+3.84010881e-01f,-4.31877375e-01f,-2.85688877e-01f,
-4.97507714e-02f,-3.47400934e-01f,+4.49467689e-01f,-4.09849197e-01f,+2.17840686e-01f,
-1.31112501e-01f,-1.73593149e-01f,+3.84247839e-01f,-2.00934127e-01f,-1.03098117e-01f,
-3.83921474e-01f,+4.03000504e-01f,-1.51946442e-02f,+1.59685910e-01f,+1.17126316e-01f,
+3.52080092e-02f,+1.33585081e-01f,+1.53729483e-01f,+3.71650428e-01f,+3.72281671e-01f,
+3.82472664e-01f,-2.69739360e-01f,-3.12558055e-01f,+1.01280682e-01f,-3.06164622e-01f,
-4.50782657e-01f,+4.13840771e-01f,-2.17476234e-01f,-2.14166537e-01f,+4.81411777e-02f,
-2.56036818e-01f,-3.24784577e-01f,-1.87359040e-03f,+3.68325323e-01f,+1.16969794e-01f,
-2.46010318e-01f,-1.50308847e-01f,-5.04477397e-02f,-2.46505793e-02f,-1.26660883e-01f,
-9.87237319e-03f,-3.15706283e-02f,-3.80880713e-01f,-4.10594672e-01f,+4.32352386e-02f,
-4.59848672e-01f,+2.57886052e-01f,+3.98984551e-02f,+9.84585192e-03f,-3.18930656e-01f,
+2.79402673e-01f,+2.55364776e-01f,+2.97840476e-01f,-3.17252934e-01f,-6.28068373e-02f,
+1.68853730e-03f,-2.22565725e-01f,-1.63252413e-01f,+2.72897165e-03f,-3.51752162e-01f,
+3.59804362e-01f,+3.29478592e-01f,-1.29410446e-01f,+2.59689778e-01f,+2.97219723e-01f,
+3.26126158e-01f,+1.14429496e-01f,-3.79372090e-01f,-1.81012917e-02f,+1.86484665e-01f,
+1.63105592e-01f,-3.78983796e-01f,-1.37917742e-01f,+2.98713684e-01f,-4.65840131e-01f,
-4.86996211e-02f,-4.76713836e-01f,-3.06104928e-01f,-3.87296826e-01f,+4.13697213e-01f,
+4.02462035e-01f,+2.10415632e-01f,+1.21885411e-01f,-3.89879525e-01f,+1.48204729e-01f,
-1.87101424e-01f,+3.77850473e-01f,+2.18019068e-01f,+1.99229583e-01f,-2.87044346e-01f,
-2.71861315e-01f,-4.08553720e-01f,-1.97460368e-01f,-3.58018368e-01f,-1.26266271e-01f,
-4.29502666e-01f,+3.90979975e-01f,+3.62297624e-01f,+9.93728340e-02f,+1.55221358e-01f,
+2.49249965e-01f,-2.67450571e-01f,+2.19120979e-01f,-4.03155386e-01f,-3.98340970e-02f,
+3.20622846e-02f,+5.56426346e-02f,+2.30503201e-01f,+6.27534185e-03f,+2.47554667e-02f,
-2.08259836e-01f,+5.46631515e-02f,+2.78159320e-01f,+2.39415630e-03f,+3.68323177e-01f,
+4.28313822e-01f,-4.18239921e-01f,-3.74832839e-01f,+1.30060032e-01f,-5.23730507e-03f,
-8.72446820e-02f,+1.11689726e-02f,-3.46395999e-01f,+2.42694199e-01f,+3.29599440e-01f,
+3.61517102e-01f,-2.80490458e-01f,+1.60859048e-01f,-3.34025919e-01f,-2.94487178e-01f,
-1.93931699e-01f,+9.56144258e-02f,+1.74965784e-01f,+2.80632973e-01f,-4.03132796e-01f,
-1.93540841e-01f,-1.90822110e-01f,-2.78948456e-01f,+2.52572864e-01f,+4.45273608e-01f,
-3.72590005e-01f,+3.34243268e-01f,+1.60448596e-01f,+6.95709661e-02f,-3.91844094e-01f,
-6.37351051e-02f,+4.19212252e-01f,+2.20277876e-01f,-2.58956198e-02f,-2.79871196e-01f,
+3.46143484e-01f,-3.28497231e-01f,+4.24519062e-01f,+5.25385491e-04f,-3.72251235e-02f,
+2.26258263e-01f,+1.67368159e-01f,+8.82887691e-02f,+4.16212589e-01f,-6.14267737e-02f,
+4.39988226e-02f,+2.66555637e-01f,-2.63762236e-01f,+2.60638744e-01f,+2.70941496e-01f,
+3.09837937e-01f,-4.03099179e-01f,-1.29071116e-01f,-4.52418089e-01f,+7.41307139e-02f,
-2.39692390e-01f,-1.92687169e-01f,+1.64294630e-01f,+3.89088005e-01f,+8.77322443e-03f,
-4.11922276e-01f,-1.60234086e-02f,-3.16355824e-01f,-8.93626735e-02f,+2.62869984e-01f,
-5.26882038e-02f,-3.60431932e-02f,+3.49511862e-01f,-2.82747775e-01f,-2.75639355e-01f,
-2.40821391e-01f,-4.00101334e-01f,+2.84123272e-01f,+3.40996414e-01f,+3.53686690e-01f,
+3.21237624e-01f,-3.88416022e-01f,-1.25621215e-01f,-1.83583468e-01f,-5.44854477e-02f,
-3.39332484e-02f,+4.60227251e-01f,-5.24989218e-02f,-2.97271043e-01f,-1.22616537e-01f,
+2.95391977e-01f,+3.53285253e-01f,+8.90311077e-02f,-1.93527043e-01f,+2.78725058e-01f,
-3.16796862e-02f,+4.00232643e-01f,-3.45961392e-01f,-1.48235276e-01f,-1.60392135e-01f,
-2.17986032e-01f,-4.14934456e-01f,+4.36400436e-02f,-1.21983983e-01f,-1.30866334e-01f,
+3.71159881e-01f,+1.94907293e-01f,+1.29261568e-01f,+3.58831614e-01f,-4.54080477e-02f,
+2.32336894e-01f,-4.32894766e-01f,-1.09950215e-01f,+3.54557127e-01f,-1.34972751e-01f,
-1.05279125e-01f,-3.01169157e-01f,+7.08555803e-02f,-1.93568036e-01f,+6.49966821e-02f,
+2.53251642e-01f,+4.00521100e-01f,+3.08712572e-01f,+1.88557893e-01f,+2.58155912e-01f,
+3.02999299e-02f,+4.97525819e-02f,+1.71062440e-01f,-9.99129713e-02f,+2.55608588e-01f,
-1.78885475e-01f,+2.04132050e-01f,+7.58810863e-02f,+1.77073568e-01f,-1.10207312e-01f,
+3.93040597e-01f,+3.88720006e-01f,+3.94496083e-01f,-4.48912606e-02f,-1.11370645e-01f,
-6.02657832e-02f,-3.96752179e-01f,-2.33685151e-01f,-3.55924249e-01f,+7.95005541e-03f,
-3.76037568e-01f,-1.73336267e-01f,+3.98338556e-01f,+6.70165569e-02f,+8.07934999e-02f,
+2.53094733e-01f,+3.78198951e-01f,+4.00589943e-01f,+2.66660184e-01f,-2.22088784e-01f,
-1.84456199e-01f,-2.47524530e-01f,-3.43666852e-01f,-2.69542009e-01f,+3.87854069e-01f,
+4.10277024e-02f,-2.51710474e-01f,-5.43964803e-02f,+2.73623973e-01f,-1.35992497e-01f,
+6.74037822e-03f,-1.13532692e-01f,+2.63109859e-02f,+1.25488430e-01f,-7.08106384e-02f,
-5.84729388e-02f,-1.25228927e-01f,-1.26118079e-01f,+1.43701240e-01f,+1.71836004e-01f,
+3.38796258e-01f,-4.54104573e-01f,-5.53364418e-02f,-4.17645067e-01f,-5.12647517e-02f,
+8.37345496e-02f,+2.40870744e-01f,+2.82744646e-01f,-7.36102685e-02f,+8.75804480e-03f,
+3.54779482e-01f,-5.63181303e-02f,-9.26978793e-03f,+4.09191623e-02f,-2.27971748e-01f,
-5.65150343e-02f,+2.32043415e-01f,+2.42445245e-01f,-3.67152542e-01f,+2.39361003e-01f,
+3.99436235e-01f,-2.09508061e-01f,-4.10666406e-01f,-3.61153781e-01f,+4.60537434e-01f,
-3.89210582e-01f,-6.20677769e-02f,+5.95395900e-02f,+2.71771282e-01f,+9.63380113e-02f,
+1.24841824e-01f,-2.84855545e-01f,-1.87457070e-01f,+1.74223810e-01f,+3.30118328e-01f,
-4.68561426e-02f,+4.21032429e-01f,-1.13004513e-01f,-3.36741269e-01f,+3.19942608e-02f,
-3.88248026e-01f,-3.35130207e-02f,-2.52478451e-01f,+3.15864384e-01f,+1.45341381e-02f,
+4.41681772e-01f,-1.60438240e-01f,-2.04911511e-02f,-5.52248806e-02f,-3.03459346e-01f,
-3.73287737e-01f,-1.94763750e-01f,-4.54759926e-01f,+1.04669817e-01f,-2.02702716e-01f,
-3.86266232e-01f,+7.37453625e-02f,-5.38157523e-02f,-3.40433210e-01f,+3.63689899e-01f,
+2.65398651e-01f,-2.87010521e-01f,+4.08621043e-01f,-1.38017893e-01f,-4.27640676e-02f,
+2.30261460e-02f,+3.98829728e-01f,-2.27087006e-01f,-1.82773277e-01f,+3.74468297e-01f,
+1.80379480e-01f,-2.48747751e-01f,-4.54721898e-01f,+2.92300433e-01f,+2.31625840e-01f,
+3.82438332e-01f,-2.25649923e-01f,-5.43447100e-02f,+1.14826754e-01f,-2.01250985e-01f,
+1.95051245e-02f,-1.46281034e-01f,+1.87548310e-01f,+3.81542444e-02f,+1.86345369e-01f,
+1.20544769e-01f,-1.26598313e-01f,+6.41864464e-02f,+2.09551871e-01f,-3.56033146e-01f,
+3.39742243e-01f,-1.52403280e-01f,-1.02391087e-01f,+2.19718039e-01f,-4.04818505e-01f,
+9.50555652e-02f,+4.15523440e-01f,-2.27777064e-01f,+3.38364989e-02f,-1.92342848e-01f,
-2.48303086e-01f,+2.07036585e-02f,+9.06516314e-02f,-3.52466285e-01f,+3.83050770e-01f,
-4.10278529e-01f,-1.64878443e-01f,+4.16862756e-01f,+3.54684740e-01f,+2.20337808e-01f,
+2.21500576e-01f,+5.38930437e-03f,-2.74285197e-01f,+4.36766863e-01f,-1.19386114e-01f,
+1.67685166e-01f,+2.00161293e-01f,-1.89572163e-02f,+3.81452084e-01f,-1.05046093e-01f,
+1.07614156e-02f,-3.10929507e-01f,-7.33881742e-02f,+4.30928200e-01f,+4.31101739e-01f,
-1.27219617e-01f,-2.61481345e-01f,-3.43408585e-01f,-3.82236183e-01f,-6.12643100e-02f,
+3.71627808e-01f,-4.15907025e-01f,-2.12650299e-01f,-1.66527599e-01f,+1.78349257e-01f,
+2.57908162e-02f,-2.34910443e-01f,-3.19459379e-01f,-1.38731629e-01f,-4.23719466e-01f,
-4.02825415e-01f,-4.43086863e-01f,-6.52242126e-03f,-3.11448723e-01f,+2.50833243e-01f,
-2.36419350e-01f,+3.16942036e-01f,-1.93059638e-01f,+3.30226362e-01f,-2.19901085e-01f,
+1.91880330e-01f,+3.03918660e-01f,-5.08630984e-02f,-2.13368773e-01f,+3.68121713e-02f,
-3.47248822e-01f,-3.42677124e-02f,-5.84040247e-02f,-3.27846974e-01f,-3.13549012e-01f,
-1.44761994e-01f,+1.73448190e-01f,-3.52440238e-01f,-3.35340291e-01f,+3.60473394e-01f,
+4.33576107e-01f,+9.59691033e-02f,+6.70398995e-02f,-3.50365669e-01f,-3.81611407e-01f,
-4.21966352e-02f,+3.49303216e-01f,+1.76782459e-01f,+1.39979616e-01f,-3.80671352e-01f,
-3.71150851e-01f,-2.80069113e-01f,-3.05945396e-01f,+1.83708355e-01f,-1.45355567e-01f,
-9.72276479e-02f,-3.71051937e-01f,+1.21414751e-01f,+1.94550380e-01f,-8.64928365e-02f,
-4.47352320e-01f,+2.66258717e-01f,+4.42749053e-01f,+1.95500761e-01f,+4.03488487e-01f,
-1.32793158e-01f,+1.96846277e-01f,+1.76698312e-01f,-4.18818742e-01f,-2.58078605e-01f,
+7.16254935e-02f,-2.79967695e-01f,+1.64846599e-01f,-2.56631970e-01f,+1.67781532e-01f,
+3.86124969e-01f,-1.70749173e-01f,+2.89698780e-01f,-2.37135917e-01f,-2.39489764e-01f,
+6.13858029e-02f,+3.17159504e-01f,+1.28982425e-01f,-2.42529914e-01f,-4.18317616e-01f,
+6.51147142e-02f,-3.17455888e-01f,-1.11230843e-01f,+2.28825569e-01f,+3.30227971e-01f,
-2.83888131e-01f,+2.29657456e-01f,-2.70688921e-01f,-1.42135754e-01f,+1.92172974e-01f,
+3.42253387e-01f,-3.63035589e-01f,+2.23260850e-01f,+9.65516716e-02f,-2.02648625e-01f,
-2.10303634e-01f,+3.47529978e-01f,+2.81640678e-03f,-3.91808003e-01f,-4.22282696e-01f,
+4.11846429e-01f,-3.62727284e-01f,+2.47162610e-01f,-2.59525508e-01f,+3.10538471e-01f,
-2.59680301e-01f,+2.92943399e-02f,+3.57004255e-01f,+3.33931983e-01f,-3.39328736e-01f,
-3.42755198e-01f,-1.49070695e-01f,+3.01798701e-01f,-2.61720657e-01f,+3.56145650e-01f,
-2.92358607e-01f,-3.39206815e-01f,-8.08698013e-02f,+1.77321240e-01f,+1.29027724e-01f,
-1.74437106e-01f,+3.01261842e-01f,+2.12994739e-01f,+3.00597012e-01f,+1.47464335e-01f,
-8.86359811e-02f,-9.42692831e-02f,+7.61729851e-02f,+2.09469602e-01f,-1.70705304e-01f,
-2.85263181e-01f,-3.75949651e-01f,+2.79353142e-01f,-2.13060588e-01f,-3.80336553e-01f,
+1.13977622e-02f,+3.50690991e-01f,+2.85248309e-01f,-4.19539183e-01f,+3.10193181e-01f,
+3.49713326e-01f,-3.86017293e-01f,-2.18087450e-01f,+3.60060126e-01f,+8.67640600e-02f,
-2.97944158e-01f,+2.66256720e-01f,+3.00458938e-01f,-4.00977463e-01f,-2.83856302e-01f,
-2.53022641e-01f,-1.08104974e-01f,+6.70282468e-02f,+2.73667365e-01f,-1.38115451e-01f,
-2.33456522e-01f,-1.10963911e-01f,-3.35890502e-01f,+1.96001455e-01f,-3.65038246e-01f,
-2.91345298e-01f,+1.65055677e-01f,+3.71675074e-01f,-4.84158192e-03f,-4.42030728e-02f,
+2.27848411e-01f,-3.55719179e-01f,-2.33995780e-01f,+1.40513271e-01f,-2.87538648e-01f,
-1.10398017e-01f,+7.60674477e-03f,-3.60332906e-01f,+1.66463777e-01f,-4.02538702e-02f,
+4.14717674e-01f,-2.92464495e-01f,-2.69608676e-01f,+3.78174819e-02f,+3.56703810e-02f,
-2.46548444e-01f,+1.76080585e-01f,-3.09171021e-01f,+2.06012800e-02f,-2.29862660e-01f,
+1.86489388e-01f,-3.22714567e-01f,+9.06586573e-02f,-2.06479594e-01f,+4.04976159e-01f,
+1.33368284e-01f,-1.00072876e-01f,-1.26980931e-01f,-2.85783950e-02f,-3.05536419e-01f,
-3.66102636e-01f,+3.55586469e-01f,+3.37651730e-01f,-1.16543658e-01f,+3.14270146e-02f,
+1.53069615e-01f,-3.27379582e-03f,-2.14331985e-01f,-2.90137112e-01f,-1.29932791e-01f,
+3.11584055e-01f,+3.44455481e-01f,+1.75505951e-01f,-1.24651909e-01f,-1.56925991e-01f,
-2.05548123e-01f,+7.36509338e-02f,-1.43171236e-01f,+4.56341982e-01f,+2.27610230e-01f,
+8.76014307e-02f,-1.69862330e-01f,+4.09978628e-01f,-3.86142671e-01f,+2.67638206e-01f,
-3.92041862e-01f,+2.29298458e-01f,+5.21238223e-02f,+3.27902019e-01f,-1.61821648e-01f,
+3.23669434e-01f,+1.54435590e-01f,-8.75280127e-02f,+4.03271288e-01f,-7.45076910e-02f,
+1.33706510e-01f,-1.02676012e-01f,-2.67490625e-01f,+3.37516785e-01f,+2.43015766e-01f,
+4.40533072e-01f,+2.46413782e-01f,+1.22578509e-01f,-2.56855339e-01f,-1.87882707e-01f,
-1.82251155e-01f,+3.10240984e-01f,+6.96188733e-02f,-2.89618243e-02f,-3.64397645e-01f,
-2.03199044e-01f,+1.90762207e-01f,-4.71949726e-01f,-2.28608370e-01f,-1.88578069e-01f,
+1.11407593e-01f,-3.83713394e-02f,-6.97951019e-02f,+3.38824019e-02f,-1.13039538e-01f,
+5.04997373e-02f,+1.09268770e-01f,+3.77444834e-01f,+4.15601641e-01f,-3.12244669e-02f,
-2.63974667e-01f,-1.84473753e-01f,+3.71469259e-01f,+3.87735635e-01f,+3.94571364e-01f,
-2.80725151e-01f,+3.82247180e-01f,-1.42995462e-01f,+3.82636696e-01f,+2.88584791e-02f,
-1.46949306e-01f,-1.86357751e-01f,-1.18493952e-01f,-3.19165975e-01f,+1.43814623e-01f,
+2.50211865e-01f,-1.83198273e-01f,-3.37550491e-01f,+8.94527882e-03f,+3.29427421e-01f,
+3.20945770e-01f,-2.51907498e-01f,-2.70800680e-01f,-2.83864170e-01f,+3.53864312e-01f,
-3.90218437e-01f,-1.45948917e-01f,-3.30742300e-01f,+3.51236761e-01f,+2.75929928e-01f,
-3.76147866e-01f,+1.35596424e-01f,+2.36902945e-02f,-3.17892939e-01f,+3.02642167e-01f,
-1.64132535e-01f,-1.38545692e-01f,-4.09575343e-01f,+2.22241446e-01f,-2.85718501e-01f,
-3.32422376e-01f,+3.17147188e-02f,+2.20508486e-01f,-3.00659448e-01f,-9.32062045e-03f,
-2.30149493e-01f,-2.51293063e-01f,+4.82433707e-01f,-1.26399875e-01f,-2.86533505e-01f,
-7.69686177e-02f,+1.93784192e-01f,+5.94710968e-02f,+3.74610752e-01f,+9.18941051e-02f,
+2.48756990e-01f,-1.62127893e-02f,+5.26900962e-02f,+3.31970245e-01f,+8.74075515e-04f,
+3.93168390e-01f,-3.54223430e-01f,+4.60702747e-01f,+1.80249244e-01f,-1.24441437e-01f,
-6.52767271e-02f,+3.02623928e-01f,+1.06716238e-01f,+6.75966963e-03f,+3.94675046e-01f,
+3.90792370e-01f,-2.75984585e-01f,+7.07390606e-02f,+4.01142538e-02f,-2.69523989e-02f,
+2.21015647e-01f,+2.22418204e-01f,+1.70040637e-01f,-3.92941177e-01f,-1.77686274e-01f,
-1.72172517e-01f,-7.37803876e-02f,+3.59167486e-01f,-6.11926056e-02f,-3.96998584e-01f,
-2.03480318e-01f,-1.59048259e-01f,-1.04379147e-01f,+1.55376166e-01f,-1.76421076e-01f,
+2.34965216e-02f,+1.59956664e-01f,+5.12543395e-02f,+2.08771089e-03f,+1.32231206e-01f,
+3.60262617e-02f,+1.10906176e-01f,+7.55092688e-03f,+4.08226475e-02f,+1.15754426e-01f,
+2.16480717e-01f,+1.67517066e-01f,+3.02546322e-01f,+3.40072185e-01f,+1.85245261e-01f,
+1.77139595e-01f,-3.64284426e-01f,+2.74134785e-01f,-4.13877428e-01f,-3.82110208e-01f,
-2.52269417e-01f,+3.92802715e-01f,-2.43971087e-02f,-4.85119373e-02f,+3.79125446e-01f,
+2.67033547e-01f,+4.02216285e-01f,+4.06447709e-01f,-1.24597602e-01f,-8.09478015e-02f,
+2.25486964e-01f,-1.85564116e-01f,-3.63568693e-01f,-7.71259740e-02f,+5.74608007e-03f,
-1.51359752e-01f,+3.41830887e-02f,+7.28816167e-02f,+4.89954390e-02f,+8.43258202e-02f,
-3.99321347e-01f,-1.39541656e-01f,+1.06508002e-01f,+1.24788597e-01f,+1.35802194e-01f,
+3.21619958e-01f,-4.52100545e-01f,+2.03354701e-01f,+7.41642481e-03f,+1.93643957e-01f,
-4.41067994e-01f,-4.65673685e-01f,-2.50271320e-01f,-3.11315686e-01f,-5.41241653e-02f,
+3.40322196e-01f,-1.78796634e-01f,-3.36004794e-01f,+2.54005522e-01f,+3.03434402e-01f,
+2.64644269e-02f,+1.05452225e-01f,+1.09244011e-01f,+2.60492831e-01f,-7.97719136e-02f,
-1.93719283e-01f,+4.68527049e-01f,-3.68952118e-02f,-2.96337634e-01f,+8.14779941e-03f,
-3.28474224e-01f,+1.18328795e-01f,-1.28152564e-01f,-4.07639295e-01f,}; 



float fc1_bias_array[64] = {
+3.51882726e-02f,-1.09686656e-02f,+1.64835993e-02f,+2.11916976e-02f,-1.55351935e-02f,
+2.79461518e-02f,-4.15226584e-03f,+2.30909698e-02f,+4.30593118e-02f,+5.37024103e-02f,
+4.92427833e-02f,+7.37289712e-03f,+3.93488295e-02f,+5.38216121e-02f,-1.73353758e-02f,
+4.85086888e-02f,+2.25168671e-02f,+2.78141368e-02f,+4.25753109e-02f,+3.03599518e-02f,
+1.80584844e-02f,-3.28843035e-02f,+2.96413042e-02f,+1.92699842e-02f,-2.72781458e-02f,
+2.37992555e-02f,-1.03648398e-02f,-3.75667624e-02f,-4.27119387e-03f,+1.16441483e-02f,
+3.72108147e-02f,+1.26307867e-02f,+2.80769393e-02f,+4.08761986e-02f,+2.31082719e-02f,
+2.06469167e-02f,+2.37049302e-03f,+4.54074070e-02f,+3.98036838e-03f,+2.30219141e-02f,
+6.26372471e-02f,+2.69844243e-03f,+1.21223256e-02f,+2.27939890e-05f,+4.32037786e-02f,
-1.41085545e-02f,+3.04639898e-02f,-3.30636464e-02f,+3.85383479e-02f,+5.03279790e-02f,
-2.55335798e-03f,+2.59353854e-02f,+5.62507212e-02f,+2.28820685e-02f,-4.73887734e-02f,
+2.99832448e-02f,-1.83635969e-02f,-2.00354625e-02f,+2.94832550e-02f,+1.91864297e-02f,
+5.27116098e-02f,+4.84936498e-02f,-2.86815688e-02f,+3.76181304e-02f,}; 




float fc2_kernel_array[2048] = {
-1.35437334e-02f,-5.79849258e-02f,+1.02302052e-01f,-1.55682012e-01f,+1.97306916e-01f,
+5.63745834e-02f,-5.75359613e-02f,-3.80699872e-04f,-6.18654378e-02f,-3.72302234e-02f,
+1.23977056e-02f,-1.02337161e-02f,+1.88172206e-01f,+5.68162985e-02f,+2.07082644e-01f,
+4.23000343e-02f,-9.04550403e-02f,+1.77413583e-01f,-7.46070519e-02f,+2.77716458e-01f,
+1.43938795e-01f,-1.17767632e-01f,-1.30754232e-01f,+8.86483341e-02f,-4.31154035e-02f,
+8.27602893e-02f,+4.51159589e-02f,+1.66797385e-01f,+8.02914612e-03f,+2.50707656e-01f,
-1.37266904e-01f,-1.33136332e-01f,+8.58405754e-02f,+1.93654507e-01f,-1.10370010e-01f,
+1.49984285e-01f,+1.43799707e-01f,-1.48526460e-01f,-1.32689655e-01f,-7.56176934e-02f,
+1.70282394e-01f,+6.26442879e-02f,+2.51231454e-02f,+4.68624197e-03f,+5.39985746e-02f,
+5.05075641e-02f,-6.62449151e-02f,-2.46056080e-01f,-9.05459002e-02f,+3.77032906e-02f,
+5.88737540e-02f,+8.04838762e-02f,-1.65900677e-01f,-4.71119396e-02f,-1.60128787e-01f,
-7.97402393e-03f,-5.12557328e-02f,-1.25263318e-01f,+1.66871220e-01f,-1.87730804e-01f,
-4.58561704e-02f,-7.66255334e-03f,-1.36728480e-01f,+8.29388797e-02f,+2.14446209e-05f,
-4.43438664e-02f,-2.92888340e-02f,-1.39082626e-01f,+8.24883729e-02f,+1.47160143e-01f,
-1.86388046e-01f,-4.85699214e-02f,+1.67458743e-01f,-2.10200384e-01f,-9.94889960e-02f,
+3.58120315e-02f,-7.82966316e-02f,-1.32980183e-01f,-5.35495430e-02f,-3.29697579e-02f,
+4.49009798e-02f,+3.92812304e-03f,-4.29272652e-02f,+1.40266925e-01f,-4.91880439e-02f,
-1.55831158e-01f,+1.80486381e-01f,+9.92699713e-02f,+4.38960977e-02f,-1.94030151e-01f,
+1.19793788e-01f,-2.51599044e-01f,-6.60631880e-02f,+4.33434770e-02f,-1.63917452e-01f,
-2.46561691e-02f,-1.09999962e-01f,-2.72534396e-02f,-6.54166471e-03f,+5.56432903e-02f,
-1.43093809e-01f,+3.07342224e-02f,-9.66139808e-02f,-1.09295987e-01f,-1.09974414e-01f,
-1.76229984e-01f,-1.91495996e-02f,+1.09913364e-01f,+1.42912567e-01f,-1.66605532e-01f,
-1.16176300e-01f,-1.71469867e-01f,-4.43423316e-02f,+4.65512089e-02f,+1.98169816e-02f,
+1.31425932e-01f,-1.19523071e-01f,-1.02163553e-01f,-4.76941019e-02f,-1.72719911e-01f,
+3.98368947e-02f,+1.18717225e-02f,+4.89924010e-03f,-2.15305015e-02f,+2.05076963e-01f,
+3.05514899e-03f,-1.69092774e-01f,-1.14612818e-01f,+8.40424821e-02f,-7.92746767e-02f,
+1.33372694e-01f,+6.66881632e-03f,+1.65393934e-01f,-1.47350430e-01f,-1.40188739e-01f,
+1.89509541e-01f,-1.25586495e-01f,+8.09200928e-02f,+8.85149613e-02f,-8.12807977e-02f,
-8.05882439e-02f,+2.28713647e-01f,+3.57234627e-02f,-8.16081613e-02f,-1.17505036e-01f,
-2.25408003e-01f,-1.62977219e-01f,-1.55538842e-01f,-2.03550771e-01f,+1.94870025e-01f,
-3.08433194e-02f,+1.09774716e-01f,+5.00534028e-02f,-1.06362864e-01f,+1.22288659e-01f,
+1.27808064e-01f,-5.39238937e-03f,+3.09054069e-02f,-1.28801903e-02f,+1.22649290e-01f,
-1.39315024e-01f,+1.17921010e-01f,+1.53947040e-01f,+1.89412236e-01f,+6.96272999e-02f,
-1.73121363e-01f,+1.36977971e-01f,-1.17744222e-01f,-3.49276140e-02f,+1.64600223e-01f,
-1.06049359e-01f,+1.74657822e-01f,-4.05925550e-02f,+7.83836693e-02f,-8.85609835e-02f,
-9.71636176e-02f,-1.47036031e-01f,+7.79832760e-03f,-3.23718623e-03f,-1.05751261e-01f,
+9.65304077e-02f,-1.99845746e-01f,-7.89096206e-02f,+2.31095672e-01f,-2.88225338e-02f,
-9.74409003e-03f,-4.64931838e-02f,+2.14348167e-01f,+5.46442866e-02f,+1.60552934e-01f,
-1.36532709e-01f,+1.72979638e-01f,-1.83859120e-05f,+5.97810373e-02f,+1.32404670e-01f,
-2.82633454e-02f,+1.46802962e-01f,-5.33251911e-02f,-1.49457231e-01f,+3.54978703e-02f,
+2.27988154e-01f,-6.59090579e-02f,-1.32418200e-01f,+1.04917020e-01f,+1.93282411e-01f,
-1.20724015e-01f,+1.60149764e-02f,+1.60595402e-01f,+2.60570675e-01f,-4.86127883e-02f,
+2.91615445e-03f,+2.00156365e-02f,-2.61153076e-02f,+4.55379225e-02f,-1.22660168e-01f,
+1.16070576e-01f,+4.39941362e-02f,+1.20604984e-01f,+6.49804994e-02f,-1.31151021e-01f,
-1.77198991e-01f,+1.20175928e-01f,-9.06016156e-02f,-5.49377091e-02f,-8.70126858e-02f,
-2.60321498e-02f,+2.08395153e-01f,+1.35537341e-01f,-9.02635157e-02f,-1.46480605e-01f,
+1.38109431e-01f,-1.70933247e-01f,-1.32044673e-01f,+3.21280919e-02f,+1.09174453e-01f,
+1.31800950e-01f,+1.57623366e-01f,-2.56000049e-02f,+8.17927495e-02f,-2.69777458e-02f,
+6.64872751e-02f,-1.56094909e-01f,+4.69759479e-02f,+1.82872489e-01f,-1.86087877e-01f,
-1.01225324e-01f,+1.82352290e-01f,-5.34752458e-02f,+1.89411581e-01f,+1.53919813e-04f,
+1.02757260e-01f,-1.09783053e-01f,+2.29864478e-01f,+1.51872203e-01f,+1.28131136e-01f,
+1.50185078e-01f,+4.89804009e-03f,-2.12730050e-01f,+1.50971934e-01f,+6.81809112e-02f,
+1.47838846e-01f,+4.21747193e-02f,+1.31112888e-01f,+9.31383017e-03f,-5.85625581e-02f,
-1.33210629e-01f,+3.24062482e-02f,-1.98143676e-01f,-1.54998498e-02f,-1.65780321e-01f,
-1.64218098e-01f,-1.61974743e-01f,+4.37351875e-02f,+5.13305366e-02f,+3.22992019e-02f,
-6.44529089e-02f,+1.24393433e-01f,+1.48488924e-01f,+1.77365586e-01f,-2.56028641e-02f,
-2.57368572e-02f,+1.36487365e-01f,-1.23764277e-01f,+1.72145069e-02f,-4.38569561e-02f,
-7.87720233e-02f,-1.09093010e-01f,+4.67974246e-02f,-5.33486903e-02f,-1.24192193e-01f,
+4.23767082e-02f,+1.31488159e-01f,-1.62672088e-01f,+1.11071698e-01f,+1.31061405e-01f,
-5.17291799e-02f,+1.64357498e-01f,-1.05352057e-02f,-1.04625948e-01f,+1.10224023e-01f,
+1.68998227e-01f,-2.23215949e-02f,-1.79431126e-01f,-9.61027294e-02f,+8.36662855e-03f,
+2.19829530e-01f,+6.59894347e-02f,-2.74716243e-02f,+1.21256500e-01f,-5.80050312e-02f,
+1.83429375e-01f,-1.41530454e-01f,+1.00509077e-01f,-1.54742271e-01f,-2.30205834e-01f,
+1.67308733e-01f,+2.54677832e-02f,+2.58737672e-02f,+1.93454940e-02f,+8.48315135e-02f,
-3.84335853e-02f,-1.47779577e-03f,+1.34873018e-01f,+8.48436281e-02f,+1.25747502e-01f,
+2.14811355e-01f,-5.78542389e-02f,-9.20507684e-02f,+2.14506641e-01f,-8.16970542e-02f,
-2.03509890e-02f,-1.20929167e-01f,+4.65906337e-02f,-1.52010322e-01f,+9.11117438e-03f,
+7.58915395e-02f,+2.17484966e-01f,+1.85862601e-01f,-7.18615055e-02f,+3.92761873e-03f,
+1.66608527e-01f,+1.70641378e-01f,-2.60812510e-02f,+3.49489152e-02f,+1.30762964e-01f,
+1.12357251e-01f,-1.36377573e-01f,-4.41681594e-02f,+1.22026764e-01f,+1.40607193e-01f,
+1.60525009e-01f,+2.97516934e-03f,-1.67567715e-01f,-1.80241942e-01f,-1.55344576e-01f,
+9.74363014e-02f,+1.87963564e-02f,-7.21896440e-02f,+1.43521458e-01f,+6.73972070e-02f,
-6.83303997e-02f,+1.37590811e-01f,+1.62293926e-01f,+1.38538495e-01f,-2.08128262e-02f,
+1.53529430e-02f,+4.77350280e-02f,-1.67399347e-02f,+1.17686592e-01f,+1.40851304e-01f,
+1.07952937e-01f,+1.50467753e-01f,-1.97013631e-01f,+1.20299824e-01f,+1.21253632e-01f,
-1.82227716e-01f,+6.62361160e-02f,-1.53245851e-02f,+1.77335143e-01f,+1.04972318e-01f,
+1.00874253e-01f,+1.68612197e-01f,+1.35479093e-01f,-5.06860502e-02f,-8.42110512e-06f,
-6.95429480e-05f,+7.21282288e-02f,-6.05332367e-02f,-8.28634668e-03f,+1.58222169e-01f,
+2.36723945e-01f,-8.07634071e-02f,+1.99495360e-01f,+1.67847015e-02f,-1.23817334e-02f,
-1.46706581e-01f,-1.97226077e-01f,+1.85705587e-01f,+1.87517434e-01f,+1.96279809e-01f,
+8.14130455e-02f,+2.39535823e-01f,-1.26521587e-01f,+5.32511324e-02f,-7.81897157e-02f,
-1.04807667e-01f,+2.43870199e-01f,+6.44885600e-02f,-1.43857867e-01f,-1.08355984e-01f,
-1.48035780e-01f,+1.50248706e-01f,-1.64610982e-01f,-4.10148054e-02f,-1.03497222e-01f,
+9.86608416e-02f,+8.44298229e-02f,-2.20572323e-01f,-5.88329732e-02f,+7.05220476e-02f,
+2.00636894e-01f,-1.94628909e-01f,-1.51220962e-01f,+1.05058551e-01f,+1.11155234e-01f,
-4.59453948e-02f,+6.27187220e-03f,-1.21257171e-01f,+3.99104729e-02f,+1.01714037e-01f,
-6.09682985e-02f,+1.33615121e-01f,-6.50597736e-02f,+4.16876152e-02f,+1.04827188e-01f,
+1.75188184e-01f,+2.06920892e-01f,+1.87859848e-01f,-7.28688389e-02f,-1.08717337e-01f,
+1.10737786e-01f,-1.77602112e-01f,-1.40383139e-01f,+2.14811057e-01f,-5.92708997e-02f,
-1.18945055e-02f,+5.01784980e-02f,+2.43135735e-01f,-1.42872408e-01f,+1.02013238e-01f,
+4.92834747e-02f,-1.80583090e-01f,+2.67657288e-03f,+1.61713809e-01f,-1.70055479e-01f,
-2.12900460e-01f,+1.13706112e-01f,-1.32217988e-01f,-1.49172321e-01f,-1.44471884e-01f,
+6.90076314e-03f,+2.06461877e-01f,-1.88831300e-01f,-2.33298048e-01f,-1.76029474e-01f,
-2.62297727e-02f,-1.85533404e-01f,-1.15439668e-02f,+1.55750856e-01f,-3.40747610e-02f,
-1.03285469e-01f,+2.93766218e-03f,-2.18018502e-01f,+1.12781949e-01f,+1.82588026e-01f,
+2.80862562e-02f,+2.05674946e-01f,+1.42662391e-01f,+1.44453809e-01f,-1.42869309e-01f,
+1.30086951e-03f,+1.86532587e-01f,+1.39608718e-02f,+1.95839360e-01f,-5.60273603e-02f,
+1.18912563e-01f,+7.51992315e-03f,-2.18883395e-01f,+1.85802922e-01f,-3.39007303e-02f,
+1.81131795e-01f,-2.25207478e-01f,-6.61225151e-03f,+2.33965561e-01f,-1.54869677e-02f,
+2.08622456e-01f,+1.69356674e-01f,+5.79208210e-02f,-7.05261156e-02f,-6.31832927e-02f,
+6.45725355e-02f,+2.33371615e-01f,-1.53282285e-01f,+8.22381526e-02f,+1.35855535e-02f,
+9.32298973e-02f,-1.92542180e-01f,-1.89460799e-01f,+5.94402030e-02f,+1.14007322e-02f,
-7.65148401e-02f,+2.28842095e-01f,-9.04001966e-02f,-1.14514902e-02f,+1.85748294e-01f,
-1.70450002e-01f,-7.56214783e-02f,+1.10411286e-01f,+2.09756076e-01f,-1.20629542e-01f,
-9.26253870e-02f,-6.42408952e-02f,-2.24163800e-01f,+6.22282252e-02f,+1.48154616e-01f,
+2.33177662e-01f,-8.26313794e-02f,+1.19234517e-01f,+2.01315656e-01f,-1.06528938e-01f,
+1.36060238e-01f,+2.02968717e-01f,+3.01511213e-02f,+2.41365492e-01f,+2.13780385e-02f,
-3.60450409e-02f,+2.15628341e-01f,-2.14092299e-01f,-1.11618221e-01f,-5.12916557e-02f,
-4.32141051e-02f,-9.91585013e-03f,+6.46350905e-02f,-1.79575101e-01f,-6.01034909e-02f,
-1.28574789e-01f,+4.47476059e-02f,+1.15028441e-01f,+1.45358341e-02f,+2.13483959e-01f,
+1.80277705e-01f,-1.48880973e-01f,-4.81365845e-02f,+9.13824886e-02f,+1.17207132e-02f,
+5.67276105e-02f,+6.28935397e-02f,-1.14974855e-02f,+1.58357516e-01f,+2.10899822e-02f,
-1.07306451e-01f,-5.60367070e-02f,-1.77517727e-01f,-1.10062800e-01f,+3.84416394e-02f,
+7.60659277e-02f,-1.21470049e-01f,-5.96653670e-02f,+1.79957673e-01f,+1.64742127e-01f,
-1.37145460e-01f,+3.28994058e-02f,+2.16069117e-01f,-1.74824432e-01f,-1.51378021e-01f,
+5.57235330e-02f,-7.81098861e-05f,+2.27026790e-02f,-1.59205094e-01f,+1.45984575e-01f,
-5.13639450e-02f,+1.55940831e-01f,+1.34188356e-02f,-2.67772879e-02f,+5.65705039e-02f,
+2.31159046e-01f,+1.17950253e-01f,-7.38369972e-02f,+1.22653350e-01f,+8.87249261e-02f,
+1.88169852e-02f,+5.71233332e-02f,+6.49704933e-02f,+1.09444102e-02f,-8.77973884e-02f,
+1.93768471e-01f,-1.08206756e-02f,-2.06877992e-01f,-4.05741557e-02f,-1.72702193e-01f,
-2.23217253e-02f,-2.23320015e-02f,+8.46161544e-02f,+1.93353176e-01f,-3.13640870e-02f,
-1.89730734e-01f,+6.60661012e-02f,-1.61411241e-01f,+1.41245142e-01f,-2.59672161e-02f,
+5.15651889e-02f,-5.73060140e-02f,+6.79297522e-02f,-1.85783535e-01f,-1.86587095e-01f,
+5.33082336e-02f,-1.98285297e-01f,+1.52191669e-01f,+9.61211696e-02f,-1.41221598e-01f,
-1.62620485e-01f,+1.81416467e-01f,+2.44559556e-01f,-1.32932821e-02f,-1.42509222e-01f,
-1.31269380e-01f,-2.48926505e-02f,-7.90030435e-02f,-3.03958915e-02f,-1.66799858e-01f,
-8.52512270e-02f,-4.10630330e-02f,+1.02806762e-01f,-1.48202553e-01f,+2.05164671e-01f,
-6.77925497e-02f,+2.08349526e-01f,+1.50380597e-01f,-1.08907782e-01f,+1.56383842e-01f,
-3.45411854e-06f,-4.48214263e-02f,-1.27996147e-01f,-5.75281344e-02f,+1.37917846e-01f,
-9.67131555e-03f,+1.96171165e-01f,-1.52307659e-01f,-1.51114866e-01f,-4.62997071e-02f,
-1.77266970e-01f,-1.50100499e-01f,+1.51964828e-01f,-1.80825382e-01f,+8.32437947e-02f,
-1.90649286e-01f,-2.27353014e-02f,+4.14683148e-02f,+1.32773980e-01f,-4.05708700e-02f,
+1.46328643e-01f,-6.66051134e-02f,+1.69761688e-01f,-2.09443212e-01f,-6.04427047e-02f,
-1.48278475e-01f,+2.69894674e-03f,+2.11483136e-01f,+1.62650988e-01f,-1.17138978e-02f,
-4.67454717e-02f,+5.35832159e-03f,+1.06728382e-01f,+1.59157008e-01f,+1.54290482e-01f,
-6.81806877e-02f,-1.79816857e-01f,-8.11528563e-02f,+9.57485437e-02f,-4.02260572e-03f,
-1.11661948e-01f,+1.56772267e-02f,+5.53237386e-02f,+6.26208186e-02f,+7.41861314e-02f,
+9.39451531e-02f,+1.25552565e-01f,-1.93742700e-02f,-1.28034353e-01f,-1.71507746e-01f,
-8.57595652e-02f,-1.35243371e-01f,+1.96892116e-02f,+2.38774016e-01f,-8.23817402e-02f,
+1.43623441e-01f,+2.30017811e-01f,+7.67451227e-02f,+1.50442332e-01f,-7.06858262e-02f,
+1.29500434e-01f,-7.82556608e-02f,-6.32140692e-03f,-2.59422287e-02f,+2.88870502e-02f,
-2.19560675e-02f,-1.94625333e-01f,+1.59061566e-01f,-2.03703374e-01f,-1.18973039e-01f,
-1.72434792e-01f,-6.77352846e-02f,+2.10351422e-01f,+1.16521142e-01f,-1.39429674e-01f,
-1.70481890e-01f,-1.71770692e-01f,-1.26067877e-01f,+6.34457096e-02f,+5.47777256e-03f,
-7.27957934e-02f,-7.90733669e-04f,+1.31862193e-01f,+1.97055489e-01f,+1.71670243e-02f,
+7.37691894e-02f,-5.33035435e-02f,-1.21587619e-01f,+2.29514614e-01f,-7.47299194e-02f,
-1.14721164e-01f,-8.90597031e-02f,+6.58154264e-02f,+1.82344586e-01f,+1.82290852e-01f,
-8.37211907e-02f,-6.41983375e-02f,-5.17738797e-02f,-5.43638021e-02f,+1.11214161e-01f,
-3.02017368e-02f,-1.92274377e-01f,+1.13463566e-01f,-6.30619749e-02f,-1.58518106e-02f,
-1.37471735e-01f,-6.45573288e-02f,+1.45827442e-01f,+1.38672382e-01f,+1.65095657e-01f,
+1.43711224e-01f,+5.76731451e-02f,+1.39446422e-01f,+1.37966111e-01f,-1.21242858e-01f,
-1.37049958e-01f,+5.78344576e-02f,+1.77990034e-01f,+1.23011105e-01f,+1.04511879e-01f,
+1.86390996e-01f,+2.01724097e-01f,+1.14358060e-01f,+1.79104015e-01f,-1.13701969e-01f,
+7.04546422e-02f,-7.07948534e-03f,+7.81055912e-02f,+9.15166065e-02f,+1.09502390e-01f,
-1.22223474e-01f,+2.10049286e-01f,-1.61229774e-01f,-1.78569123e-01f,-4.30178568e-02f,
-1.20993160e-01f,-1.59207091e-01f,-2.01839149e-01f,-2.01680318e-01f,+2.38011807e-01f,
-1.46260843e-01f,+7.72964358e-02f,-1.00066282e-01f,-4.03221371e-03f,-1.73368528e-01f,
-1.70300141e-01f,-1.29068881e-01f,+5.16430847e-02f,+1.85077086e-01f,+2.26091817e-01f,
+7.53568262e-02f,+1.29624128e-01f,-2.01727971e-01f,-7.75182294e-03f,+1.18005350e-01f,
-2.23576099e-01f,-1.76678628e-01f,+1.01025820e-01f,-3.78489785e-04f,-1.07486553e-01f,
-8.70835409e-02f,+1.63492486e-01f,+2.16856748e-01f,-2.04683661e-01f,+1.38275072e-01f,
+1.58338740e-01f,+1.02091849e-01f,+1.40749380e-01f,-1.43313250e-02f,+6.90560862e-02f,
+1.22616775e-02f,-5.86431148e-03f,+6.93243220e-02f,-6.87759221e-02f,+2.39750147e-01f,
-2.43227258e-01f,-1.67732343e-01f,+1.52721018e-01f,-2.12329611e-01f,+1.96715683e-01f,
-2.99425907e-02f,-2.09750131e-01f,+6.20541647e-02f,-2.88959872e-02f,-3.61167304e-02f,
+1.05330281e-01f,+1.36731803e-01f,+1.51107118e-01f,-2.16457561e-01f,-1.11047842e-01f,
-1.62709519e-01f,+1.10288545e-01f,+3.39461565e-02f,+8.54358599e-02f,-1.43585831e-01f,
-1.65417507e-01f,+2.17105955e-01f,+1.12360723e-01f,+4.22858894e-02f,+8.83888528e-02f,
-2.36421321e-02f,+7.74007698e-04f,+5.94694838e-02f,+1.75816372e-01f,-9.33515429e-02f,
+1.09211624e-01f,-7.76424035e-02f,+1.80855885e-01f,-1.39940202e-01f,-2.13978440e-01f,
+2.27211509e-02f,+2.15507913e-02f,-7.83694685e-02f,+1.50837660e-01f,-8.66127238e-02f,
-5.06683066e-02f,+1.41107813e-01f,-1.12598367e-01f,+1.76086470e-01f,+1.28165543e-01f,
-2.00009197e-02f,+1.15919583e-01f,+2.26867184e-01f,+8.64583626e-02f,-2.43521754e-05f,
-1.82260290e-01f,-1.14318974e-01f,+8.35972875e-02f,+1.59281611e-01f,-1.24316506e-01f,
+1.81188717e-01f,+5.83396927e-02f,-9.90766063e-02f,+2.61786170e-02f,-1.73550159e-01f,
+1.12813011e-01f,+8.11404660e-02f,-9.81015712e-03f,+1.64761454e-01f,+1.34983286e-01f,
-1.52235195e-01f,-6.45247772e-02f,+5.51261641e-02f,+2.41721079e-01f,+3.53554301e-02f,
-1.10667422e-01f,-1.74690500e-01f,-1.39817327e-01f,+5.19998791e-03f,-2.02771828e-01f,
-5.41145541e-02f,-1.25961035e-01f,+1.47162199e-01f,-9.70169604e-02f,+1.23365611e-01f,
-6.47061691e-02f,-4.55624349e-02f,+1.19154766e-01f,-1.35858059e-01f,-1.06044874e-01f,
-4.78611216e-02f,+2.84180194e-02f,-3.02600414e-02f,+2.00517550e-02f,+8.07979330e-02f,
-1.29562318e-01f,+2.56051958e-01f,-1.68497518e-01f,-1.79647684e-01f,-6.80084080e-02f,
-1.28479883e-01f,+4.74190712e-02f,-8.12928304e-02f,-1.47345603e-01f,-1.76109761e-01f,
+1.37253895e-01f,+5.70756868e-02f,+9.76200998e-02f,-2.19714195e-02f,+2.68810987e-02f,
-4.23041731e-02f,-1.35172516e-01f,+5.14460681e-03f,-1.28887370e-01f,-1.73565209e-01f,
+7.06039965e-02f,+1.08443327e-01f,+5.22839464e-02f,+3.67976092e-02f,-3.15088481e-02f,
+7.60136619e-02f,+1.41737178e-01f,-7.48523399e-02f,+1.45329386e-01f,+1.66927397e-01f,
-1.07091486e-01f,-1.26960397e-01f,+1.64319590e-01f,-8.13049357e-03f,-4.28971089e-02f,
+2.08157957e-01f,-7.38152787e-02f,-1.88859515e-02f,+1.92370504e-01f,+1.62059575e-01f,
-7.16546457e-03f,+1.21717252e-01f,+4.18704061e-04f,+3.93421240e-02f,-1.72292322e-01f,
+1.42970845e-01f,-1.06555372e-01f,-1.12902246e-01f,-2.39596833e-02f,-1.78400546e-01f,
+8.99316072e-02f,+1.11296296e-01f,+2.28890255e-02f,+1.56737342e-02f,+2.89020818e-02f,
-2.48261020e-02f,+1.86041102e-01f,-4.90334164e-03f,+4.80922945e-02f,-1.75760239e-01f,
-1.43749654e-01f,+2.97155362e-02f,-1.21903084e-02f,-1.45747662e-01f,+7.28595033e-02f,
-6.80000260e-02f,-3.05293500e-02f,-2.18902528e-01f,-1.99592367e-01f,-8.32499713e-02f,
+1.41780913e-01f,-6.68597743e-02f,+1.85909569e-01f,-1.46850944e-01f,-8.87817815e-02f,
+1.20853353e-02f,+1.49876922e-01f,+1.66387513e-01f,+2.28161991e-01f,+3.40858959e-02f,
+1.15836345e-01f,-4.22453955e-02f,-1.20800108e-01f,-2.23996535e-01f,+1.92395315e-01f,
-6.32442534e-02f,+1.28365964e-01f,-6.63539140e-07f,+4.71018068e-02f,-5.81755079e-02f,
+7.98755214e-02f,+1.88583791e-01f,-1.16616532e-01f,+1.56536371e-01f,-1.55850396e-01f,
-3.87889706e-02f,-1.07113071e-01f,+2.49583408e-01f,+7.34224096e-02f,+1.01317912e-01f,
-1.44282326e-01f,-1.32623851e-01f,-1.23235323e-02f,-1.67048126e-01f,+9.77422521e-02f,
-1.94109365e-01f,-1.72834933e-01f,+1.38892934e-01f,-1.51622994e-02f,-3.31553966e-02f,
+1.89742476e-01f,-9.41066742e-02f,-2.43841842e-01f,-6.16100244e-02f,+2.12101847e-01f,
+5.90311736e-03f,-6.60089627e-02f,+1.38276592e-01f,+1.20397620e-01f,-1.38208852e-05f,
-1.81437701e-01f,-1.59614027e-01f,+5.63067123e-02f,+1.23347059e-01f,+1.84622258e-01f,
+1.27325729e-01f,-3.99336932e-06f,+1.76285088e-01f,-3.40253189e-02f,-1.49727434e-01f,
+7.36485496e-02f,+1.78274378e-01f,+1.31191328e-01f,+1.80724546e-01f,+1.40928954e-01f,
+1.21209428e-01f,-1.39577046e-01f,+2.00885236e-01f,-1.01941675e-02f,-8.71407390e-02f,
-1.92840606e-01f,-2.36573786e-01f,+1.32734448e-01f,+3.25602712e-03f,-1.34098694e-01f,
-7.80893862e-02f,-8.19837078e-02f,-1.13671340e-01f,+7.70306364e-02f,-6.87130466e-02f,
-1.75094292e-01f,+1.22175425e-01f,-1.94668025e-01f,+5.55420704e-02f,+1.57310486e-01f,
-8.73083174e-02f,-1.75581127e-02f,+1.05937257e-01f,+1.48673892e-01f,-6.37297183e-02f,
+1.86292857e-01f,-2.18910966e-02f,-1.95785791e-01f,-2.37960398e-01f,-1.77991152e-01f,
-1.56459495e-01f,+1.65699199e-01f,-4.65153009e-02f,+1.24732837e-01f,+1.81369305e-01f,
+3.18586342e-02f,+1.96850017e-01f,+6.89652562e-02f,+6.24464713e-02f,+1.67607188e-01f,
-1.19869597e-03f,+7.51906559e-02f,+1.61948085e-01f,-2.04449281e-01f,+1.58239111e-01f,
+1.13680400e-01f,-7.62322098e-02f,-1.73795465e-02f,-5.06685190e-02f,+1.34898379e-01f,
+2.47443154e-01f,-1.64692551e-01f,+1.26493365e-01f,+1.36949837e-01f,-1.11422442e-01f,
+6.37997240e-02f,+1.76129460e-01f,-2.16398239e-01f,-1.95204556e-01f,-3.36648747e-02f,
+1.82327911e-01f,+1.25916466e-01f,-1.77398577e-01f,+1.10531203e-01f,-1.25751242e-01f,
+2.58636951e-01f,+1.12388097e-01f,+3.36685404e-02f,-1.57246560e-01f,+9.49872434e-02f,
+2.32751355e-01f,+1.25182211e-01f,-4.76587787e-02f,-1.50876045e-01f,+1.17031910e-01f,
-1.58671066e-01f,+1.13451056e-01f,-7.17430562e-02f,-1.16119206e-01f,+1.70616612e-01f,
-7.90904239e-02f,+1.51869461e-01f,+8.81037582e-03f,-7.84410313e-02f,+4.45275083e-02f,
-7.97399785e-03f,+1.93012148e-01f,-1.53947368e-01f,+1.01626599e-02f,+1.71722397e-01f,
-1.84788182e-01f,+7.79050067e-02f,-1.46857817e-02f,+6.74918890e-02f,+1.53929263e-01f,
-1.04732253e-01f,-1.82626456e-01f,+9.60752144e-02f,-2.02803165e-01f,-1.46400496e-01f,
+1.08526029e-01f,-1.37388393e-01f,-7.07187727e-02f,+1.64357200e-01f,-2.20279709e-01f,
+1.74669787e-01f,-7.26879435e-03f,-3.44567560e-02f,+1.66831315e-01f,+1.46304503e-01f,
-1.59507319e-02f,+1.20548807e-01f,-1.48610339e-01f,+1.96020961e-01f,+2.09722891e-02f,
-1.71752170e-01f,+4.07267967e-03f,+1.04877725e-01f,-1.72687426e-01f,-7.66522661e-02f,
+2.00084865e-01f,+6.22505732e-02f,+1.46411955e-01f,-1.17605567e-01f,-1.09763652e-01f,
+1.09528698e-01f,+8.58989730e-02f,+2.28490047e-02f,-4.00919318e-02f,+1.92738950e-01f,
+2.07564220e-01f,-1.29451066e-01f,+2.55224437e-01f,+1.16244555e-01f,-1.50579482e-01f,
+9.66757238e-02f,-1.34167984e-01f,-1.65356576e-01f,-7.48405159e-02f,+1.85887769e-01f,
-6.73651770e-02f,+1.27389044e-01f,-1.23507090e-01f,+5.93019761e-02f,-4.46376689e-02f,
+4.38232720e-02f,+4.43883948e-02f,+1.23742335e-01f,-1.61288664e-01f,-2.55984347e-03f,
-7.81010240e-02f,-1.66735992e-01f,-4.28383872e-02f,+1.16954006e-01f,+7.17379749e-02f,
+9.20905322e-02f,-1.57659903e-01f,+1.27088621e-01f,+7.89858866e-03f,+5.23695871e-02f,
+1.72528908e-01f,-3.34271491e-02f,-1.06225029e-01f,+1.92353092e-02f,+1.45922795e-01f,
+2.24804074e-01f,+1.19651258e-01f,+1.44370263e-02f,+1.78498924e-01f,-1.06403887e-01f,
-1.42960086e-01f,+2.03302145e-01f,-1.16640210e-01f,+7.47539476e-02f,-1.78726483e-02f,
-4.40018438e-03f,-8.12209323e-02f,+1.08969219e-01f,-1.55780748e-01f,-9.30400640e-02f,
+1.57885790e-01f,-3.16409208e-02f,-7.47437030e-03f,-2.19169542e-01f,+3.01391520e-02f,
+8.89324248e-02f,-1.23667167e-02f,+4.67282087e-02f,+1.45376548e-01f,-1.84989169e-01f,
-5.11787720e-02f,-1.12150982e-02f,-1.20801836e-01f,+7.97506869e-02f,+3.30622680e-02f,
+7.25447685e-02f,+4.25747745e-02f,-6.77701309e-02f,-8.28068703e-02f,+1.06684394e-01f,
-1.37366392e-02f,-5.13255261e-02f,-1.55597076e-01f,+1.03020079e-01f,-2.88905613e-02f,
-1.83505610e-01f,-1.04022302e-01f,-4.78082988e-03f,-6.66721910e-02f,-1.37110874e-01f,
-3.04025374e-02f,+1.91749066e-01f,+2.34699354e-01f,+5.20911403e-02f,-5.43409549e-02f,
-5.51710278e-02f,-1.43280715e-01f,-2.25297492e-02f,-1.70432369e-03f,+8.43285844e-02f,
-3.81836556e-02f,+9.58691761e-02f,+8.47340450e-02f,-1.39629081e-01f,+5.35525158e-02f,
+1.83407128e-01f,+1.86817989e-01f,-1.08135276e-01f,-1.04112409e-01f,-1.09654544e-02f,
+1.75795257e-01f,+5.36890812e-02f,+9.15971324e-02f,+4.89089871e-03f,+1.13504857e-01f,
-2.62940135e-02f,+2.53517270e-01f,+1.43533751e-01f,+2.23366275e-01f,+2.65185758e-02f,
-1.64793879e-01f,+2.35015061e-03f,-1.08088195e-01f,-1.15327120e-01f,-6.42369613e-02f,
-9.48268175e-02f,-6.54829368e-02f,+1.22910604e-01f,+2.38415062e-01f,+2.36414690e-02f,
+1.95859954e-01f,-2.26471484e-01f,-1.36550024e-01f,-1.25171855e-01f,-1.38993517e-01f,
-2.01116856e-02f,-1.31079825e-02f,+9.45740491e-02f,+6.22117743e-02f,-2.35770747e-01f,
+2.55174607e-01f,+1.77313954e-01f,+8.04525837e-02f,+1.17245145e-01f,+5.91268204e-02f,
+1.53538167e-01f,-1.16795108e-01f,-8.16996172e-02f,+1.66174471e-01f,-1.25902742e-01f,
-9.67249349e-02f,-2.60982066e-02f,+1.01902328e-01f,-3.69162709e-02f,-1.48468256e-01f,
+9.06026661e-02f,-3.12452000e-02f,-6.05856366e-02f,+8.38928074e-02f,+5.88957928e-02f,
-8.99847224e-02f,-8.14374611e-02f,-1.28446713e-01f,+4.94472906e-02f,+1.31095201e-01f,
-1.02195725e-01f,+1.58613518e-01f,-1.74009636e-01f,+2.69510243e-02f,+2.41129190e-01f,
+6.91364426e-03f,-1.41289398e-01f,-5.23142479e-02f,+5.69615811e-02f,+4.35393900e-02f,
-1.70357540e-01f,+2.27185503e-01f,-5.66398650e-02f,-5.47919348e-02f,-4.34423871e-02f,
-5.61767593e-02f,-1.45760953e-01f,+1.71346352e-01f,-1.38725445e-01f,-1.08560860e-01f,
-2.13140771e-01f,+8.90269428e-02f,+2.24166643e-02f,-1.30716980e-01f,+1.43601522e-01f,
-1.54165074e-01f,-6.56960979e-02f,+5.55017442e-02f,+8.71794522e-02f,-2.64580306e-02f,
+2.22636551e-01f,+1.67251661e-01f,+2.07621101e-02f,+2.72162817e-02f,-8.91502798e-02f,
-4.48966585e-02f,-7.75673985e-02f,-1.46518528e-01f,-1.04085706e-01f,-1.49649158e-02f,
+5.78782409e-02f,+1.55912697e-01f,-9.54416208e-03f,-1.30505949e-01f,+1.46588013e-01f,
+1.33935481e-01f,+2.07363129e-01f,+1.30922019e-01f,+4.08058753e-03f,-1.32340625e-01f,
+1.40385441e-02f,+4.01558392e-02f,+1.73444957e-01f,-1.43262222e-01f,-3.70046496e-02f,
+1.96795657e-01f,+9.83139873e-03f,+1.65484145e-01f,+8.09743851e-02f,-9.61828511e-03f,
+3.71736251e-02f,+2.14077517e-01f,+1.54146001e-01f,-8.13703313e-02f,-1.86995119e-01f,
+6.96379691e-02f,+1.57875359e-01f,+1.85552478e-01f,+1.61407650e-01f,+2.30720197e-03f,
-8.84846300e-02f,+1.34718269e-01f,+7.26422574e-03f,-4.17121798e-02f,+2.45153196e-02f,
-3.21698189e-02f,+9.95691493e-02f,+4.82825898e-02f,-2.08420772e-03f,-6.60718307e-02f,
-1.40104800e-01f,+8.67143869e-02f,-1.48003310e-01f,-1.13294624e-01f,-2.57912744e-02f,
-1.95848510e-01f,-1.18216984e-01f,+1.00179449e-01f,-6.09804504e-03f,+2.09122717e-01f,
-5.25463000e-02f,-4.30672988e-02f,-2.08277069e-02f,+7.99175203e-02f,+1.71881437e-01f,
-5.62075712e-02f,+2.02270776e-01f,+1.52180701e-01f,-1.17618091e-01f,+1.09461926e-01f,
+1.36507973e-01f,-1.86241671e-01f,+2.93669980e-02f,+4.01240364e-02f,+1.64427906e-01f,
+1.39820486e-01f,-8.48811492e-02f,+1.67039469e-01f,+6.89484850e-02f,-1.13790110e-01f,
+2.12767437e-01f,-8.58465061e-02f,-1.38672456e-01f,+2.11151034e-01f,+2.17902496e-01f,
+4.45618753e-07f,-4.83262464e-02f,-1.96114630e-02f,-3.21481638e-02f,-1.09448517e-02f,
+2.20155180e-01f,-1.81853518e-01f,-2.22034170e-04f,+1.47390962e-01f,-1.88116968e-01f,
-2.41132304e-01f,+1.53711885e-01f,+2.20579684e-01f,+5.75975962e-02f,-1.78667024e-01f,
-1.29210381e-02f,-9.70991328e-04f,-6.28717765e-02f,+8.42334628e-02f,-9.18501541e-02f,
-6.90747574e-02f,-2.17825845e-01f,+1.29307181e-01f,+2.05837702e-03f,+1.20039977e-01f,
+3.19194607e-02f,-1.37215540e-01f,+5.51807396e-02f,+1.48651198e-01f,+1.16105095e-01f,
-2.06156895e-02f,+1.80319965e-01f,-5.13155498e-02f,-9.20421928e-02f,-4.28209044e-02f,
-4.60976213e-02f,-6.23816252e-02f,+5.93241602e-02f,-7.94865042e-02f,+3.08579076e-02f,
-5.71418516e-02f,+1.76134482e-01f,+2.08676100e-01f,+2.19483510e-01f,+2.18476623e-01f,
+1.87485144e-01f,+7.85887614e-02f,-1.75594717e-01f,+2.92311721e-02f,+1.48202792e-01f,
+2.24170461e-01f,-1.24446964e-02f,+1.44468427e-01f,+4.20171320e-02f,+9.06241462e-02f,
-1.37058169e-01f,+4.70431894e-03f,+1.59344450e-01f,+1.08915539e-02f,+1.23612858e-01f,
+1.69356927e-01f,+5.34333996e-02f,+4.46343701e-03f,-7.84408525e-02f,-1.60143572e-05f,
-1.49028316e-01f,+8.73181820e-02f,-1.10360488e-01f,-1.50279105e-01f,+1.57382250e-01f,
+1.11605518e-01f,+1.11854650e-01f,+9.66349095e-02f,-1.08286798e-01f,-1.43027857e-01f,
+1.23514183e-01f,-6.98612630e-02f,-8.77257809e-02f,+1.07780129e-01f,+2.44630333e-02f,
-3.01889777e-02f,-1.16026372e-01f,-1.10501789e-01f,-6.51232600e-02f,+3.13631855e-02f,
+4.79593985e-02f,+1.53473645e-01f,-2.48087780e-03f,+1.42205078e-02f,-6.11653440e-02f,
+6.01246171e-02f,-1.14182375e-01f,-9.05547515e-02f,+3.91915478e-02f,-6.12406619e-02f,
-1.60242170e-02f,-1.87163951e-05f,+4.09332402e-02f,-7.30274916e-02f,+2.44869247e-01f,
-1.62587076e-01f,-3.31459902e-02f,+1.74092650e-01f,-1.36261957e-03f,+1.52430460e-01f,
-5.50601771e-03f,-2.39083059e-02f,+1.42191216e-01f,+2.13972986e-01f,-1.12798445e-01f,
+1.34776801e-01f,+9.78439897e-02f,-1.20143585e-01f,-1.99658930e-01f,+1.50109634e-01f,
+2.55495518e-01f,+1.99922353e-01f,+1.64223060e-01f,+5.59485704e-02f,-2.87721530e-02f,
+8.95351470e-02f,+9.59445611e-02f,-7.90026188e-02f,+1.51974931e-02f,-1.53876305e-01f,
+1.41691655e-01f,+8.62801224e-02f,+1.62321225e-01f,+6.91048263e-06f,-8.39519203e-02f,
-5.33855483e-02f,+1.14999197e-01f,-9.64438636e-03f,+3.67093347e-02f,-4.51970734e-02f,
-1.78141873e-02f,-8.65748269e-04f,+1.32634342e-01f,+1.65852413e-01f,+2.14773655e-01f,
+1.96283489e-01f,-1.04847126e-01f,+6.37718737e-02f,+1.84293538e-02f,+8.02413821e-02f,
-1.33844659e-01f,+1.50529463e-02f,+2.41589636e-01f,+1.67522535e-01f,-1.26004219e-01f,
-1.66277692e-01f,-1.52471974e-01f,-2.03178003e-01f,+1.75610662e-01f,-1.27786309e-01f,
+1.02999397e-02f,-7.09008873e-02f,-9.40348282e-02f,-1.52303979e-01f,+6.94276839e-02f,
-6.32854551e-02f,-1.01609871e-01f,-5.03519876e-03f,-1.17548160e-01f,+3.25310342e-02f,
-1.09704152e-01f,-1.52896166e-01f,-1.80221573e-02f,-1.07517570e-01f,+4.18597683e-02f,
+2.00342208e-01f,+1.77987128e-01f,-1.09733872e-01f,+1.65341258e-01f,+6.11943053e-03f,
-1.68102145e-01f,-7.55222291e-02f,+1.33961499e-01f,-2.05835357e-01f,+9.29132253e-02f,
+1.07024096e-01f,-8.79565477e-02f,-7.85736740e-02f,+1.43195242e-02f,+8.21079612e-02f,
+1.78456321e-01f,+1.33639753e-01f,-1.85948819e-01f,-1.33362934e-02f,-1.80613086e-01f,
+2.57949419e-02f,+7.44110346e-02f,-8.73869285e-02f,-1.05665855e-01f,+7.33139645e-03f,
+5.50529622e-02f,-2.15805590e-01f,+2.46792138e-01f,-2.15075407e-02f,+1.40875056e-01f,
-4.48610634e-02f,-7.43637607e-03f,+2.22195566e-01f,+8.29210281e-02f,+7.45007098e-02f,
-2.96399370e-02f,-1.67964056e-01f,-1.54505506e-01f,-1.06360242e-01f,+1.59646958e-01f,
-1.44373268e-01f,-1.51623368e-01f,-2.68555731e-02f,-9.63990837e-02f,+8.53352845e-02f,
+1.38991058e-01f,-1.47295743e-01f,+1.71781387e-02f,-1.45681277e-01f,+1.04569323e-01f,
+1.72097877e-01f,+1.42369539e-01f,+2.29074266e-02f,-1.75134972e-01f,+5.73809333e-02f,
-1.53304785e-01f,+2.67211169e-01f,-3.40979733e-02f,-6.44604117e-02f,-8.04116279e-02f,
+1.71855778e-01f,+1.33725656e-02f,+2.28587106e-01f,-4.49328199e-02f,+4.58786450e-02f,
-5.70294680e-03f,-6.50360156e-03f,+9.87051241e-03f,-6.98650405e-02f,+1.82564870e-01f,
-4.36782874e-02f,+7.81478435e-02f,+6.54521286e-02f,+7.14686736e-02f,+1.77992182e-03f,
+2.70972978e-02f,-1.33408517e-01f,+1.56602845e-01f,+2.08328992e-01f,-9.86827239e-02f,
-2.22005192e-02f,-9.41770449e-02f,+2.30587095e-01f,+3.90075669e-02f,-7.80287758e-02f,
+1.27837345e-01f,-7.50114769e-02f,-1.87493667e-01f,+9.11683030e-03f,-7.99682513e-02f,
+6.69698492e-02f,+8.14132839e-02f,-9.19168070e-02f,-1.49223097e-02f,+1.31077826e-01f,
-2.78779920e-02f,+1.90736070e-01f,-6.98929131e-02f,+1.66762635e-01f,+2.42244631e-01f,
+1.00631006e-01f,-1.10505290e-01f,-1.00681275e-01f,-8.14326704e-02f,+1.27196327e-01f,
+2.17019215e-01f,+1.29333586e-01f,+2.32403383e-01f,+6.71295263e-03f,+1.04322523e-01f,
+6.92632562e-03f,-4.06292826e-02f,-1.29550546e-02f,-1.16708919e-01f,+1.12361945e-01f,
-9.85860452e-02f,+1.04414001e-01f,-5.84844351e-02f,-9.54451337e-02f,-8.01845342e-02f,
-1.14047997e-01f,+1.74105674e-01f,+6.07569180e-02f,+9.16172564e-02f,-2.53201127e-01f,
+7.36311302e-02f,-9.36879069e-02f,-2.16332719e-01f,+5.22892959e-02f,+1.44703984e-01f,
-1.19025066e-01f,+1.68539211e-01f,-1.53488992e-02f,-1.49581298e-01f,+9.65293050e-02f,
+1.25158846e-01f,+2.00069904e-01f,+1.02158953e-02f,-1.35049015e-01f,+2.49293700e-01f,
+2.31451526e-01f,-9.46229398e-02f,-1.12809815e-01f,-9.90979895e-02f,-9.42253247e-02f,
-1.34932920e-01f,+8.32147896e-02f,+1.64286628e-01f,-1.59696877e-01f,+2.34577134e-01f,
+4.59688681e-06f,-1.10296734e-01f,-1.56912163e-01f,-8.57431907e-03f,+1.31788477e-01f,
-2.19372526e-01f,+1.47110745e-01f,-2.23936662e-01f,+3.76921184e-02f,-1.05022877e-01f,
+1.27689168e-01f,+1.31905660e-01f,+1.38534624e-02f,-1.66157842e-01f,-1.99797265e-02f,
+1.15303703e-01f,-7.01931119e-02f,-1.24731744e-02f,-1.66456938e-01f,-9.37924013e-02f,
+1.68698519e-01f,-1.58612996e-01f,-1.05476610e-01f,+1.97584212e-01f,-1.59286439e-01f,
+2.01802477e-01f,-7.35122385e-03f,+1.59521356e-01f,-1.97392255e-01f,+3.71384919e-02f,
+3.06291934e-02f,+1.06358238e-01f,+2.05407944e-02f,+1.77486867e-01f,+2.39568293e-01f,
-2.75165234e-02f,+1.48011476e-01f,+1.39463067e-01f,-4.79938313e-02f,-1.90434024e-01f,
-1.70076683e-01f,-1.50450408e-01f,-1.62643358e-01f,+3.43090072e-02f,-8.88074115e-02f,
+7.73008913e-02f,-1.73241109e-01f,+7.10134357e-02f,+8.59629437e-02f,+7.91947357e-03f,
-8.25436488e-02f,+2.46440843e-02f,+4.62787785e-02f,-5.70166782e-02f,-1.20512754e-01f,
+9.95128155e-02f,+2.58546043e-02f,+1.49459004e-01f,-1.52828231e-01f,+1.71452850e-01f,
+1.22268228e-02f,-1.69932321e-01f,+6.64589480e-02f,-2.14747816e-01f,+1.14615023e-05f,
+1.35304909e-02f,-5.83394691e-02f,+2.40122616e-01f,+4.56463620e-02f,-9.77876782e-02f,
+1.44102380e-01f,+9.19858217e-02f,-1.28354281e-01f,-5.56704476e-02f,-1.47769541e-01f,
+1.73761472e-01f,-4.53396477e-02f,+1.09926388e-01f,-3.01577654e-02f,-1.59211904e-01f,
-9.20719653e-02f,-1.90036848e-01f,-8.35934505e-02f,+1.72613580e-02f,+1.05225891e-01f,
+9.08422321e-02f,-1.39377013e-01f,+3.48290727e-02f,-1.73325285e-01f,-1.11913448e-03f,
+3.34875248e-02f,-9.16219130e-02f,-5.21208532e-02f,-2.38513686e-02f,-1.19828209e-01f,
-7.88960233e-02f,-3.47557034e-06f,-1.34439379e-01f,+1.09104775e-01f,+3.91571932e-02f,
+2.29163200e-01f,-1.36552721e-01f,+4.30200323e-02f,-8.34677592e-02f,+6.05965145e-02f,
+2.19502792e-01f,-5.89045621e-02f,-1.42919216e-02f,-1.62919275e-02f,-1.55968547e-01f,
+1.93891078e-01f,-1.71132863e-01f,-1.29731700e-01f,+1.45314991e-01f,+1.09683618e-01f,
+1.70998558e-01f,+1.87644869e-01f,-1.23842649e-01f,+2.67263278e-02f,-1.36194155e-01f,
-1.23576112e-02f,+8.25632364e-02f,+1.95464730e-01f,+1.05874822e-01f,+2.12740526e-01f,
-8.47776160e-02f,-1.49742991e-01f,+6.34771511e-02f,-1.15509681e-01f,-9.59736705e-02f,
-6.61912784e-02f,-8.09376240e-02f,+2.05778390e-01f,-6.43418878e-02f,-8.54532942e-02f,
+1.42221540e-01f,+1.93850309e-01f,-9.60797071e-03f,+1.55496702e-01f,+9.27810818e-02f,
-1.92231476e-01f,-1.00040715e-02f,+1.03509299e-01f,+1.06195912e-01f,+1.08137324e-01f,
-1.00192778e-01f,-3.43186781e-02f,-1.44471824e-01f,-1.94895193e-02f,-6.42119795e-02f,
-1.26791269e-01f,-1.51352897e-01f,+4.43482436e-02f,-1.14416175e-01f,-8.56793858e-03f,
+2.02199206e-01f,+2.29231473e-02f,+2.19423845e-01f,+4.16847430e-02f,+1.34906158e-01f,
+2.26990414e-05f,+1.96213752e-01f,+7.08209490e-03f,+7.92936131e-04f,-3.99475079e-03f,
-1.29675940e-01f,+1.95340082e-01f,-4.53529805e-02f,-1.97584435e-01f,-3.64215448e-02f,
+1.60941631e-01f,+1.49384633e-01f,+7.05509707e-02f,+1.15158074e-01f,-1.54627943e-02f,
-1.52658984e-01f,-1.94654316e-01f,+2.02446073e-01f,+1.95855051e-01f,-1.62922829e-01f,
+2.18977600e-01f,+1.81939527e-01f,-2.15835944e-01f,+9.27974842e-03f,-1.98230878e-01f,
+5.49170040e-02f,-4.00549099e-02f,+1.45811349e-01f,+2.17505749e-02f,+1.33493841e-01f,
-1.00717999e-01f,+3.55002098e-02f,-5.25460837e-06f,-7.70712271e-02f,+1.14698790e-01f,
-1.19253397e-01f,+2.43070126e-01f,+4.15202938e-02f,-2.25609064e-01f,-1.56880081e-01f,
-1.74031019e-01f,+1.56953171e-01f,-1.22708909e-01f,-7.12239444e-02f,-1.44906223e-01f,
+2.18893811e-01f,+1.44832462e-01f,-4.74724509e-02f,-1.64022800e-02f,+2.66973302e-02f,
+1.33759752e-01f,+1.15499318e-01f,-1.48882875e-02f,+7.38392100e-02f,+4.59875166e-02f,
-7.49643818e-02f,+1.87522590e-01f,+3.08552049e-02f,+8.24220628e-02f,-1.57260329e-01f,
+1.30906984e-01f,-3.90220433e-02f,-6.50100783e-02f,-5.91020659e-03f,+7.29678050e-06f,
-1.10358320e-01f,+3.31522115e-02f,-1.35395721e-01f,-1.71343490e-01f,+1.61223352e-01f,
+1.81559380e-02f,+3.95270064e-02f,+5.88837788e-02f,+1.00844838e-01f,+1.55800417e-01f,
+1.10100187e-01f,-2.42663383e-01f,+9.22228545e-02f,-1.48298323e-01f,+2.02504650e-01f,
+7.76657686e-02f,+1.07351884e-01f,+3.36256257e-04f,+2.00123459e-01f,-1.57188073e-01f,
+1.85993358e-01f,-2.06579223e-01f,-3.37020424e-03f,-1.08253039e-01f,-5.62213510e-02f,
+1.00882119e-02f,-1.66845053e-01f,+6.15390204e-02f,-1.42196521e-01f,-2.14628428e-02f,
-8.14471841e-02f,-1.48733869e-01f,+9.44570974e-02f,+9.02713314e-02f,-1.41201094e-01f,
-2.13469341e-01f,-8.41962993e-02f,+1.33346871e-01f,-7.47155473e-02f,+9.41336527e-02f,
-8.58124197e-02f,-4.29083593e-02f,-7.45739369e-03f,-2.03116775e-01f,-1.92339435e-01f,
+2.29677513e-01f,-9.98232141e-02f,+7.07844198e-02f,+2.01253533e-01f,+2.95500383e-02f,
+5.12528457e-02f,+1.38990119e-01f,-7.51612633e-02f,-1.33906260e-01f,+2.38319650e-01f,
+1.07753262e-01f,+1.00697637e-01f,+1.87331930e-01f,-2.24548783e-02f,-2.33719461e-02f,
-1.06045216e-01f,-1.24638706e-01f,-1.65162176e-01f,}; 


float fc2_bias_array[32] = {
+1.28417462e-03f,-1.48917856e-02f,+2.89232191e-02f,+2.34965533e-02f,+2.31647920e-02f,
+2.51021199e-02f,+4.39202189e-02f,-2.39672270e-02f,+1.79041661e-02f,+2.26724669e-02f,
+5.14868051e-02f,-2.49952860e-02f,+9.85085312e-03f,-3.00736669e-02f,+2.53393613e-02f,
-3.81015614e-02f,+9.50545724e-03f,+4.63255495e-02f,+1.88238639e-02f,+4.15024087e-02f,
+4.69779521e-02f,+4.78039542e-03f,+1.57118235e-02f,+1.68597363e-02f,+4.87671085e-02f,
+6.21744618e-03f,-1.49454763e-02f,+1.94135611e-03f,+1.12794442e-02f,+2.80351825e-02f,
+9.97758377e-03f,+2.53216103e-02f,}; 



float fc3_kernel_array[1024] = {
+2.38220058e-02f,-1.40797079e-01f,-5.52597679e-02f,+3.10213049e-03f,+1.25928789e-01f,
+2.52286166e-01f,+4.09097411e-03f,+2.50271946e-01f,-1.23730354e-01f,-9.03863385e-02f,
+4.04633731e-02f,+2.30200291e-01f,-2.56790131e-01f,-1.70565590e-01f,-1.43522710e-01f,
+1.65127233e-01f,+5.48665867e-07f,+9.95274484e-02f,-8.06545904e-06f,-2.12046146e-01f,
+1.47802308e-01f,-4.11220305e-02f,-2.38570541e-01f,-3.64624634e-02f,+1.16589412e-01f,
+2.52785951e-01f,+5.08281255e-06f,-1.11622921e-06f,-2.35016227e-01f,+3.04061044e-02f,
-3.25838027e-06f,+1.11663722e-01f,+1.77935764e-01f,-2.56775737e-01f,+1.67496815e-01f,
-2.60908484e-01f,-1.88490987e-01f,-1.74071759e-01f,-3.46230604e-02f,-1.53150767e-01f,
-4.78371382e-02f,-2.50388324e-01f,-1.33340150e-01f,+2.93639928e-01f,-7.41789639e-02f,
-1.53495729e-01f,-6.25727028e-02f,-4.22479138e-02f,-1.91075668e-01f,+2.11194366e-01f,
-1.61016430e-03f,-2.28827685e-01f,+2.84814656e-01f,+2.70647913e-01f,+1.63726002e-01f,
-2.77050117e-06f,-2.48105690e-01f,+6.78864717e-02f,+2.78964072e-01f,+7.53832832e-02f,
-3.36282887e-02f,+4.20392230e-02f,-2.58131564e-01f,+2.60479510e-01f,-1.40750572e-01f,
+1.31126896e-01f,+1.41965702e-01f,+1.38423234e-01f,+3.11612636e-02f,+1.68982148e-01f,
-2.89761927e-02f,-3.27117890e-01f,+1.49702132e-01f,-1.30354702e-01f,+1.71076432e-01f,
-2.60438353e-01f,-1.29746184e-01f,+9.47012156e-02f,-7.33589083e-02f,-2.85401762e-01f,
+2.91596740e-01f,+2.09789321e-01f,-1.27790913e-01f,+1.72657803e-01f,-1.45696357e-01f,
+2.30821356e-01f,-1.83913782e-01f,-8.76753330e-02f,-7.01450631e-02f,+1.20658614e-01f,
-7.92168006e-02f,-5.82169462e-03f,-1.67438880e-01f,-5.05849943e-02f,+9.28514265e-03f,
+4.57397178e-02f,-1.85681611e-01f,+2.35301137e-01f,-1.16998859e-01f,-1.37708694e-01f,
-1.09988846e-01f,+2.79591084e-01f,+1.56710446e-01f,+2.56207913e-01f,+2.35721052e-01f,
+1.01650670e-01f,+4.68946360e-02f,-1.85750693e-01f,+1.69050526e-02f,+5.95236430e-03f,
-2.54489273e-01f,-2.65696764e-01f,+2.33352020e-01f,+2.55837411e-01f,+6.18390506e-03f,
+2.62040138e-01f,+2.95510173e-01f,-3.07659924e-01f,-4.04675156e-02f,-8.69705528e-03f,
+1.57012269e-01f,-2.96320230e-01f,+1.76427737e-01f,+1.51056960e-01f,+1.01310477e-01f,
-1.56132057e-01f,+2.45019376e-01f,-1.26265436e-01f,-2.05851972e-01f,+2.06654981e-01f,
-1.57663733e-01f,-1.53849974e-01f,+4.35169414e-02f,-2.03995094e-01f,-9.31972191e-02f,
+3.41571718e-01f,+1.79311588e-01f,+4.22362238e-02f,+2.89155215e-01f,+3.31434667e-01f,
+3.24698031e-01f,+9.88294557e-02f,+2.53784418e-01f,+1.67950556e-01f,+1.46561116e-01f,
-4.90497649e-02f,-9.74330828e-02f,+1.99308231e-01f,+1.13262758e-01f,-4.23438102e-02f,
-2.45812759e-01f,+2.98025250e-01f,+1.15246415e-01f,-3.05226892e-01f,-4.79848869e-02f,
-2.04302162e-01f,-1.89600110e-01f,-2.51585066e-01f,+8.83275196e-02f,-1.57170057e-01f,
+1.44613236e-01f,+1.74440861e-01f,+2.50348806e-01f,-1.75499246e-01f,-1.13682672e-01f,
+1.79550901e-01f,-2.50626821e-02f,+2.35813126e-01f,+2.28294089e-01f,-3.58614475e-02f,
+2.20839269e-02f,+1.65273458e-01f,+3.07789207e-01f,+2.76970446e-01f,+1.82627365e-01f,
+1.39374912e-01f,+2.96507508e-01f,-1.01041822e-02f,-3.66555117e-02f,+2.35286415e-01f,
-1.13587387e-01f,+5.92981651e-02f,+1.74568463e-02f,+2.19501019e-01f,-1.83684275e-01f,
-2.10728228e-01f,-1.90835983e-01f,-2.44170994e-01f,+1.30870208e-01f,-1.36073276e-01f,
+1.11056067e-01f,+3.26350242e-01f,-6.69137090e-02f,+2.74605662e-01f,-2.52324641e-01f,
-2.64357209e-01f,-2.53000379e-01f,+1.81884930e-01f,-1.37816668e-01f,+1.71174005e-01f,
+1.82918951e-01f,+2.43394166e-01f,+2.11141631e-01f,-2.18600824e-01f,+3.17804217e-02f,
+1.73350945e-01f,+1.80420488e-01f,-1.33728802e-01f,+3.10423821e-01f,-2.83426512e-02f,
+1.98809281e-01f,-8.96714851e-02f,-7.21922740e-02f,-7.80029222e-02f,-1.53399840e-01f,
-3.03087115e-01f,+2.30248109e-01f,+2.59491295e-01f,+3.17736603e-02f,-8.81439298e-02f,
-1.88504368e-01f,+2.61066288e-01f,-2.36074746e-01f,-2.18386680e-01f,-1.10067278e-01f,
-2.04483166e-01f,+9.10555944e-02f,+2.91911811e-01f,-2.55266249e-01f,-2.30669864e-02f,
-8.55773091e-02f,-2.39557162e-01f,-1.84241608e-01f,+7.79609382e-02f,-9.67268571e-02f,
+8.51727724e-02f,+1.22383395e-02f,+1.74948969e-03f,+5.50380163e-02f,+1.02376141e-01f,
-1.17637806e-01f,-2.08156586e-01f,-1.26757085e-01f,+1.37792483e-01f,+1.68950871e-01f,
-1.32466644e-01f,-1.08825974e-01f,-9.42924097e-02f,+2.32448190e-01f,-2.43468478e-01f,
+2.77608275e-01f,-2.59982403e-02f,-1.50558546e-01f,+1.03327781e-01f,+2.58861482e-01f,
-1.35112017e-01f,+2.81440049e-01f,-6.55001029e-03f,+2.32968554e-01f,+1.66640967e-01f,
+1.75744787e-01f,-1.89824432e-01f,-3.37595344e-02f,+2.09272712e-01f,-1.75880879e-01f,
-2.24786609e-01f,-5.45504829e-03f,-1.70644492e-01f,-3.17831963e-01f,+1.23098150e-01f,
+2.40441367e-01f,+7.06267953e-02f,+2.53342122e-01f,-1.00340480e-02f,+1.84257671e-01f,
-1.36418328e-01f,+2.61606067e-01f,+1.11073270e-01f,+1.84550770e-02f,-1.09375156e-01f,
+2.79632807e-01f,+2.95049816e-01f,-8.40449408e-02f,-3.24687988e-01f,+7.25518242e-02f,
-2.55260825e-01f,+2.13532060e-01f,-2.21728057e-01f,-2.50134319e-01f,+1.47517622e-01f,
-2.03658372e-01f,+2.40242764e-01f,-5.94034828e-02f,+2.16510415e-01f,+1.15448885e-01f,
-2.47029334e-01f,+1.00925915e-01f,-8.38847458e-02f,+3.28770161e-01f,-1.02044567e-01f,
-2.28233472e-01f,-9.28282812e-02f,+1.00224674e-01f,-2.38823712e-01f,-2.71231979e-01f,
-2.75197983e-01f,+9.56272334e-02f,+4.74558994e-02f,+2.86791980e-01f,-8.24390128e-02f,
+2.32937306e-01f,+7.90421292e-02f,+8.07241350e-02f,+7.31417537e-02f,-2.04299539e-02f,
-1.92061454e-01f,-1.40244067e-01f,-4.04114107e-04f,-2.04495326e-01f,+2.72224307e-01f,
+1.38011977e-01f,+2.54316926e-01f,-2.11480662e-01f,-1.29121155e-01f,+2.31374770e-01f,
+2.05627128e-01f,+2.26316750e-01f,-1.55007020e-01f,-2.38511264e-01f,+2.17905387e-01f,
+6.82568103e-02f,-4.18392085e-02f,-1.51222711e-02f,-2.35477567e-01f,-2.60146707e-01f,
+1.30395785e-01f,-8.89403373e-02f,+2.84654856e-01f,+2.67940551e-01f,-2.36239478e-01f,
-1.88941151e-01f,+1.79373786e-01f,+1.49716780e-01f,+1.76047847e-01f,+9.00322571e-02f,
-1.47667080e-01f,-2.38488927e-01f,+3.22221011e-01f,+1.50551554e-02f,+1.17431648e-01f,
+3.74799185e-02f,-3.74377851e-04f,+7.38886371e-02f,-1.08020969e-01f,+1.25248924e-01f,
+1.38484150e-01f,+9.97664630e-02f,+1.51652634e-01f,+1.77288264e-01f,+2.06410177e-02f,
+1.39225230e-01f,+1.90495595e-01f,-1.92373514e-01f,+1.36567086e-01f,+9.42310393e-02f,
-2.43993700e-01f,-2.05975562e-01f,+2.20636904e-01f,+1.95315212e-01f,-2.70635277e-01f,
+9.30532664e-02f,+1.13674924e-01f,-4.11430188e-03f,+1.90323755e-01f,-3.40107866e-02f,
-1.53833613e-01f,-1.23937756e-01f,-2.89249301e-01f,-2.08097883e-02f,+3.03617306e-02f,
+2.09437773e-01f,-1.85670123e-01f,-2.15118438e-01f,+1.11946069e-01f,+2.95698315e-01f,
+1.04607254e-01f,-1.78865269e-01f,+2.18439505e-01f,-3.16751860e-02f,+3.22242081e-01f,
+2.72163749e-01f,-2.05206312e-02f,-2.78917640e-01f,+9.25478116e-02f,+7.14396760e-02f,
+1.10336617e-01f,+1.80112988e-01f,-1.61987603e-01f,-1.92798465e-01f,+1.51357949e-02f,
+9.87995118e-02f,+6.05983846e-02f,-3.52933966e-02f,+3.04938376e-01f,+6.75772056e-02f,
-3.66031341e-02f,+2.92461179e-02f,-4.68545817e-02f,+7.48454705e-02f,-2.94376522e-01f,
+2.66217589e-01f,+2.07626104e-01f,-2.18557298e-01f,+8.42365324e-02f,-3.22441995e-01f,
-3.14488038e-02f,-1.62377149e-01f,-1.99657828e-01f,-2.96860695e-01f,-1.18190490e-01f,
-2.81117648e-01f,+3.18243146e-01f,-6.29958138e-02f,+1.70099184e-01f,-6.96154088e-02f,
+2.24055633e-01f,+4.01104800e-02f,+3.50730687e-01f,+1.41251191e-01f,+1.63743094e-01f,
+2.17804849e-01f,+2.00512424e-01f,+4.88618053e-02f,-1.19315395e-04f,+1.03907645e-01f,
-1.97509527e-01f,-5.90712437e-03f,+7.60510862e-02f,-7.56370127e-02f,-1.30239934e-01f,
-1.54914083e-02f,-2.44566098e-01f,+1.48176134e-01f,+1.56069115e-01f,-1.22757278e-01f,
-8.63361433e-02f,-4.61734869e-02f,+2.07446009e-01f,+2.91371137e-01f,-1.17622316e-01f,
+1.29065305e-01f,+5.86396642e-02f,+8.59576911e-02f,+8.84641409e-02f,+3.24640393e-01f,
-5.86099736e-02f,-1.90302759e-01f,-6.66742101e-02f,+3.09946120e-01f,+2.58802831e-01f,
-2.47112870e-01f,+1.90884411e-01f,+1.99079394e-01f,+2.08338797e-01f,-6.62100241e-02f,
+1.48069203e-01f,+1.47171738e-02f,+2.11863875e-01f,-6.53834715e-02f,-4.65903617e-02f,
+1.58950597e-01f,+1.31329954e-01f,+1.26944795e-01f,-1.77336261e-02f,+7.89981186e-02f,
+3.25007826e-01f,-2.41218448e-01f,+1.11502551e-01f,+1.55626729e-01f,+2.16523245e-01f,
-8.64194985e-03f,-1.35877848e-01f,+6.16497397e-02f,+1.55584827e-01f,-1.14231415e-01f,
+4.34054174e-02f,-1.93303198e-01f,-2.56197244e-01f,+4.47498783e-02f,-1.32183716e-01f,
+2.44297862e-01f,+2.67014891e-01f,-8.82283822e-02f,+3.15901241e-03f,-6.91724271e-02f,
-6.75692335e-02f,+2.02096537e-01f,-2.32548594e-01f,-2.99726240e-02f,+2.21975654e-01f,
-1.65850922e-01f,+1.38319200e-02f,+2.76976377e-01f,+2.48241983e-02f,-1.21233523e-01f,
+4.59151231e-02f,+6.35173731e-03f,+1.28003612e-01f,+1.77652359e-01f,-2.79020127e-02f,
-1.88166291e-01f,+2.87073046e-01f,-2.26993009e-01f,-1.72819719e-01f,+1.94424108e-01f,
+1.96378127e-01f,-2.40072101e-01f,+2.61867851e-01f,+2.29315951e-01f,+5.89664141e-03f,
+1.90323040e-01f,-1.36954397e-01f,+1.60180226e-01f,+2.86107033e-01f,-1.79568961e-01f,
-1.23513803e-01f,+2.09733352e-01f,+1.25854120e-01f,-1.51119828e-01f,-2.67395496e-01f,
-1.47340745e-01f,+5.42269368e-03f,-1.03219584e-01f,+1.61666498e-01f,+1.65684685e-01f,
+2.46898413e-01f,-1.88363016e-01f,-8.83702669e-05f,-1.36968195e-01f,-2.05856025e-01f,
+2.77534855e-06f,+4.36377190e-02f,-1.76931858e-01f,-1.65931419e-01f,-1.44261807e-01f,
-2.37366334e-01f,-1.69981077e-01f,+2.00610846e-01f,-2.29000226e-01f,+2.02819891e-02f,
+2.14330509e-01f,-2.53742218e-01f,+1.43765330e-01f,+1.22160248e-01f,+2.43879333e-01f,
-8.06905776e-02f,+1.49918824e-01f,+1.27069339e-01f,+2.00018600e-01f,-2.64950514e-01f,
+1.50837898e-01f,-3.17936420e-01f,+2.68956751e-01f,-1.31307572e-01f,-1.13848530e-01f,
+1.05661757e-01f,+2.50246543e-02f,+2.32835233e-01f,+1.39745429e-01f,+3.29389304e-01f,
+9.23563391e-02f,-1.20228939e-01f,-1.16357245e-01f,+1.29723296e-01f,+2.91412711e-01f,
-1.09258361e-01f,+1.38979062e-01f,-2.59475023e-01f,-8.37747678e-02f,+1.23295955e-01f,
+2.05179870e-01f,-2.36656234e-01f,-1.29103050e-01f,-9.60216820e-02f,-5.45986965e-02f,
+2.72942066e-01f,-2.51349092e-01f,+2.53293931e-01f,-1.93790644e-01f,-2.74841845e-01f,
-1.86978504e-01f,-3.41505915e-01f,-1.59557357e-01f,-1.98238730e-01f,+1.94595888e-01f,
+1.79312438e-01f,+2.71870375e-01f,-1.30142316e-01f,+2.11623028e-01f,+1.67720765e-01f,
+1.93945646e-01f,-3.01255714e-02f,-9.15211067e-02f,-1.52671322e-01f,-2.61395305e-01f,
-2.50398368e-01f,+2.02015981e-01f,+2.68176615e-01f,+1.68772385e-01f,-8.67648236e-03f,
-1.43837303e-01f,-1.67570755e-01f,-1.42362088e-01f,-1.76223561e-01f,+3.28763276e-01f,
-1.25639588e-01f,+1.21265585e-02f,+2.68345207e-01f,-1.02676056e-01f,+1.85644984e-01f,
+3.64066362e-01f,+1.60019308e-01f,+1.74212810e-02f,-3.16356748e-01f,-1.24869093e-01f,
+3.42031419e-01f,+9.03620943e-02f,-2.10210398e-01f,-6.97793067e-03f,+2.26135164e-01f,
-1.76081717e-01f,+1.61836445e-01f,-1.37863368e-01f,-2.31762558e-01f,-2.67085880e-01f,
+2.19940349e-01f,-2.59894311e-01f,-3.99771193e-03f,-2.18656436e-01f,+3.11704427e-01f,
-4.29074131e-02f,-6.94267377e-02f,-3.22206289e-01f,-3.19275618e-01f,+2.67161071e-01f,
-8.48171934e-02f,-4.23544310e-02f,-1.64782032e-01f,+1.62941441e-01f,+1.76756531e-01f,
+2.26039186e-01f,-3.38291675e-01f,-2.09599122e-01f,+1.29591554e-01f,+2.57118523e-01f,
-1.68723375e-01f,-1.19139403e-02f,+1.79222394e-02f,+4.47593443e-02f,+1.01489902e-01f,
-1.35788620e-01f,-2.92529136e-01f,-1.77879147e-02f,-2.38617077e-01f,+1.83024257e-01f,
+1.01135693e-01f,+1.18779123e-01f,-2.61952072e-01f,-3.03940535e-01f,+2.58441776e-01f,
+3.26882422e-01f,-6.84269741e-02f,+1.05498873e-01f,+3.20773721e-01f,-2.41278112e-02f,
+1.95726380e-01f,+1.60070196e-01f,+2.35995099e-01f,-8.40972215e-02f,+2.33392939e-01f,
+1.56049058e-01f,+1.44848853e-01f,-2.23159394e-03f,+2.95009941e-01f,-7.80069456e-02f,
-4.43713591e-02f,+5.67232221e-02f,+1.41974419e-01f,+2.57600069e-01f,+1.45730004e-01f,
-7.14013427e-02f,-1.18214153e-01f,-1.59406632e-01f,+1.75541952e-01f,-2.46220350e-01f,
-1.19156435e-01f,+1.41692191e-01f,+1.02362499e-01f,-3.05941135e-01f,-2.57469285e-02f,
-1.19271278e-01f,-2.10843816e-01f,-2.08575949e-01f,-2.55427063e-01f,-1.29715011e-01f,
-2.85787247e-02f,-4.45769653e-02f,+1.25176445e-01f,-4.09937352e-02f,-1.05113871e-01f,
-2.09193811e-01f,+1.06738366e-01f,+2.65861731e-02f,-1.11593410e-01f,-3.25168483e-02f,
+2.38287225e-01f,-1.32868543e-01f,-3.06084361e-02f,-4.17092023e-03f,+1.01512209e-01f,
+2.90054649e-01f,+2.48944208e-01f,+1.77193806e-01f,+1.14512645e-01f,-6.02804273e-02f,
+2.00914256e-02f,+1.03306456e-03f,-7.73282051e-02f,-9.10514966e-02f,+2.35973090e-01f,
-3.09882104e-01f,+2.14557081e-01f,+1.62138805e-01f,-1.12913832e-01f,-2.07007706e-01f,
-1.08127773e-01f,-2.93642521e-01f,+3.89113165e-02f,-1.22216389e-01f,-2.38826707e-01f,
+5.91089912e-02f,-1.66708916e-01f,-1.83103263e-01f,+5.29957302e-02f,+1.21647120e-01f,
-1.02747135e-01f,-8.01448599e-02f,+1.48185685e-01f,-8.23992640e-02f,+9.94724780e-02f,
-1.60553396e-01f,-1.56521395e-01f,-1.28337324e-01f,-2.54948497e-01f,+8.34658220e-02f,
-2.26061553e-01f,+2.49956712e-01f,-2.93441206e-01f,+2.69077182e-01f,-1.17538599e-02f,
-2.46718302e-02f,+2.80065894e-01f,-2.32691802e-02f,-3.60392928e-02f,+2.01325938e-01f,
-2.39633098e-01f,-1.33242577e-01f,-1.87466249e-01f,-1.49732500e-01f,+3.40612769e-01f,
+1.96937025e-01f,+1.45121545e-01f,+8.02074894e-02f,-1.34659946e-01f,-3.01362187e-01f,
+5.01582064e-02f,+4.69858795e-02f,-2.92243928e-01f,+9.06035528e-02f,+2.58617789e-01f,
+2.91694582e-01f,+1.26606226e-01f,+2.48564243e-01f,-1.08490400e-01f,-1.97432294e-01f,
+2.40312457e-01f,+8.29072148e-02f,+2.21596956e-01f,-2.24114984e-01f,-7.32389390e-02f,
-2.11054161e-01f,+2.15136632e-01f,-8.51400420e-02f,+3.04233938e-01f,-2.11508289e-01f,
+2.69279748e-01f,-1.22496597e-01f,+1.80866778e-01f,+1.44919783e-01f,+9.72997099e-02f,
+1.73951276e-02f,-3.33265841e-01f,+3.54682207e-02f,-8.49841610e-02f,-1.55406371e-02f,
+1.69107422e-01f,+4.89821509e-02f,+2.31083184e-01f,+9.64112058e-02f,+2.52017945e-01f,
-2.58622795e-01f,-1.80899411e-01f,-1.58126682e-01f,-1.86064631e-01f,-5.35750948e-02f,
-1.33763283e-01f,+5.66709340e-02f,+2.86110230e-02f,+2.15777114e-01f,+1.70429170e-01f,
+2.82625467e-01f,+7.45780990e-02f,-1.74699634e-01f,-4.13696542e-02f,-7.49006048e-02f,
-1.38778090e-01f,+2.24573836e-01f,+2.49670789e-01f,+3.24205756e-02f,+2.63517261e-01f,
-1.30142987e-01f,-1.60198450e-01f,+2.46329144e-01f,-1.08860642e-01f,-2.70150483e-01f,
+2.42561340e-01f,-1.43794343e-01f,+2.14264825e-01f,-1.22156113e-01f,-1.77952379e-03f,
-2.28973851e-01f,+2.81404018e-01f,-2.67795682e-01f,-1.25794977e-01f,+1.69062003e-01f,
-1.67739559e-02f,-1.25289142e-01f,-3.62012461e-02f,-2.59204566e-01f,+6.10999204e-02f,
-8.76359418e-02f,+1.62399948e-01f,+2.62022652e-02f,+1.65586561e-01f,-1.01347677e-01f,
+3.36510353e-02f,+3.23130079e-02f,+2.01749131e-01f,+2.09339827e-01f,-4.02235799e-02f,
-2.62985170e-01f,+6.65753381e-03f,-2.90417850e-01f,+7.58670643e-02f,-1.05265481e-02f,
-6.28548935e-02f,+1.90767035e-01f,+4.66507860e-03f,+7.55443126e-02f,+2.79128045e-01f,
-1.05560988e-01f,+1.53097466e-01f,-2.67840832e-01f,+1.76815689e-01f,+2.45818049e-01f,
-3.04161608e-01f,-2.47843862e-02f,-2.23888576e-01f,+6.62829652e-02f,-3.01435858e-01f,
-3.49475741e-01f,+1.94064826e-01f,+2.46417671e-01f,+8.52315780e-03f,+4.70583849e-02f,
+1.05413839e-01f,+2.13577867e-01f,+1.41514018e-01f,+1.57269269e-01f,+2.20933214e-01f,
-1.30037919e-01f,-2.56371200e-01f,-2.22328573e-01f,-3.38631034e-01f,-2.27647126e-01f,
+2.47476865e-02f,+6.56032423e-03f,-2.78413951e-01f,+1.74517140e-01f,-2.05994055e-01f,
+1.39123574e-01f,+2.08336115e-01f,+3.59155536e-02f,-2.54829284e-02f,-2.49415517e-01f,
+1.00104563e-01f,-1.36608437e-01f,+2.67810106e-01f,+2.00582832e-01f,-8.85827243e-02f,
-5.99322617e-02f,-9.95154232e-02f,+1.45164609e-01f,+1.21680088e-01f,-4.98114824e-02f,
+2.48888090e-01f,+2.75432467e-01f,+6.47728220e-02f,+6.90177009e-02f,-2.07092687e-01f,
+6.50949702e-02f,+2.27632225e-01f,-2.04309374e-01f,+2.99757332e-01f,+1.80269465e-01f,
-2.35066153e-02f,-1.56201065e-01f,+3.29472154e-01f,+8.38296115e-02f,-2.67160386e-02f,
-3.00389498e-01f,+7.47183487e-02f,-1.23901978e-01f,+1.65286437e-01f,+1.73196778e-01f,
+1.64751500e-01f,-2.58338153e-01f,+6.81525171e-02f,+3.84725891e-02f,-1.98744703e-02f,
+2.17576995e-01f,-2.79260427e-01f,-1.79446310e-01f,+2.10867152e-01f,-1.93075046e-01f,
+3.98414470e-02f,-2.25267410e-01f,+1.79108247e-01f,+1.73021499e-02f,+2.17495978e-01f,
-2.15232283e-01f,-5.52538708e-02f,+2.18053728e-01f,+1.39828071e-01f,-1.83484226e-01f,
-1.05457254e-01f,-1.13439798e-01f,+7.00760335e-02f,-1.15323775e-01f,+4.83338237e-02f,
+2.05887303e-01f,-1.11547872e-01f,-1.16028719e-01f,-2.44826719e-01f,+2.43593454e-02f,
-2.34412923e-01f,+1.94374233e-01f,-5.45625910e-02f,+2.17174873e-01f,+1.60795197e-01f,
-6.61312938e-02f,+2.65206963e-01f,+1.46439895e-01f,-1.64310083e-01f,+1.15849912e-01f,
+3.11300159e-01f,-2.19722122e-01f,-2.34286457e-01f,-2.60767266e-02f,+3.65056783e-01f,
+9.43613276e-02f,-1.96412936e-01f,-2.40356117e-01f,-1.50194421e-01f,+1.30014390e-01f,
+9.43938419e-02f,+7.49886855e-02f,+1.82124496e-01f,+2.00955480e-01f,-1.24608196e-01f,
-3.91264912e-03f,+1.55957341e-01f,-1.82440236e-01f,-1.22058325e-01f,-7.96020851e-02f,
-2.09747225e-01f,-1.94288909e-01f,+4.93872352e-02f,-2.49603465e-01f,+2.57853508e-01f,
+1.67953279e-02f,+1.31386712e-01f,+9.87616628e-02f,-2.24268138e-01f,+2.10796058e-01f,
-9.49472263e-02f,+1.44574016e-01f,-2.84531154e-02f,-1.41007349e-01f,+2.66563416e-01f,
+1.11921191e-01f,+2.00640962e-01f,-1.41978025e-01f,+1.01482682e-01f,-2.54643768e-01f,
+1.89307421e-01f,-8.53081048e-02f,+1.88061416e-01f,+1.71821982e-01f,+9.83159021e-02f,
-2.93359965e-01f,-5.35752922e-02f,+2.68892467e-01f,-2.33703569e-01f,}; 




float fc3_bias_array[32] = {
+1.97843891e-02f,+5.37347905e-02f,-2.59517990e-02f,-6.71844603e-03f,-5.91465225e-03f,
-2.85335518e-02f,+3.71015705e-02f,-4.54920232e-02f,-4.36419575e-03f,+3.42433788e-02f,
+2.78154090e-02f,-3.32547650e-02f,-3.99540784e-03f,+3.52906287e-02f,-1.41390506e-02f,
-7.82871991e-03f,+3.47002484e-02f,-8.95253103e-03f,+4.44035716e-02f,-5.18873893e-03f,
+4.96852733e-02f,-1.51735293e-02f,-3.39777209e-02f,+6.83681201e-03f,+2.78765000e-02f,
+3.67905945e-02f,-2.04318203e-02f,+1.43731115e-02f,-1.85033716e-02f,-2.17147153e-02f,
+5.52861281e-02f,+4.25743908e-02f,}; 



float output_kernel_array[160] = {
+1.29315853e-02f,-1.54029593e-01f,-2.71882683e-01f,+3.84604186e-02f,+2.59573579e-01f,
-3.05896461e-01f,-2.56443679e-01f,+4.53747213e-02f,-3.00233096e-01f,+2.00159997e-01f,
-1.13567151e-01f,+2.52141565e-01f,+2.78038383e-01f,-1.51333153e-01f,-4.35131928e-03f,
+9.84437242e-02f,-1.61475495e-01f,-2.98341457e-02f,-2.49712840e-01f,+2.04037070e-01f,
-2.37200949e-02f,+1.36018291e-01f,+1.43207744e-01f,+2.52834260e-01f,+2.87037015e-01f,
+2.01943442e-01f,+1.94324866e-01f,+8.45806152e-02f,-8.06508288e-02f,+1.28788352e-01f,
+1.97708994e-01f,+2.79390365e-02f,-3.30535203e-01f,-1.70146823e-01f,-9.24839973e-02f,
+2.07166839e-02f,-1.43301114e-01f,-1.39375506e-02f,-2.78477281e-01f,-1.68144748e-01f,
+1.58465773e-01f,-4.36976515e-02f,-8.63194652e-03f,-5.20005496e-03f,+2.39604563e-01f,
-1.16461657e-01f,-1.04094446e-01f,-1.97123915e-01f,-9.89124998e-02f,-2.15089962e-01f,
-3.48675340e-01f,+1.52175784e-01f,+1.35350645e-01f,+1.23711610e-02f,+3.27598415e-02f,
+1.52094170e-01f,+2.33699381e-01f,+1.09944969e-01f,-2.82480925e-01f,-3.03519249e-01f,
+1.91738248e-01f,-2.92480528e-01f,+9.18306708e-02f,-8.25565606e-02f,+6.73773512e-02f,
+7.32331723e-02f,-1.80750087e-01f,+1.12540483e-01f,+2.87318915e-01f,+2.32266426e-01f,
-3.61218080e-02f,-6.57315403e-02f,+6.52716830e-02f,-1.10653244e-01f,+2.73704618e-01f,
-2.95867115e-01f,-9.86048505e-02f,+2.17253983e-01f,-1.19044252e-01f,+2.27978677e-01f,
+3.26341003e-01f,-1.62848994e-01f,-1.50102349e-02f,+2.33965859e-01f,+2.10474312e-01f,
+5.40521927e-02f,-2.53602982e-01f,+1.65125102e-01f,+1.76608428e-01f,-1.57595351e-01f,
-2.24165455e-01f,+2.24774092e-01f,-1.25096455e-01f,+1.68650046e-01f,-3.78598943e-02f,
+2.92979479e-01f,+3.33299637e-01f,+1.81595370e-01f,+2.15488583e-01f,-1.54962122e-01f,
-1.96591198e-01f,-8.43488500e-02f,-3.02241504e-01f,-1.55241773e-01f,-2.58268207e-01f,
-2.72816326e-02f,-1.87587097e-01f,+2.27167800e-01f,-2.88162440e-01f,+1.85971081e-01f,
-8.70263055e-02f,-1.22522451e-01f,+9.01295468e-02f,-2.22907409e-01f,-1.25620678e-01f,
-2.06125900e-01f,-5.61385415e-02f,+4.39338014e-02f,-1.80410713e-01f,-2.09579721e-01f,
-9.00991485e-02f,+2.72493452e-01f,+9.53059644e-02f,+2.06792697e-01f,+1.75339710e-02f,
-2.69315779e-01f,-7.92422369e-02f,+3.73992175e-02f,+2.97456980e-01f,+2.39566296e-01f,
-5.39835095e-02f,-2.32799482e-02f,+7.19523355e-02f,-3.02075028e-01f,+2.45914415e-01f,
-1.39701173e-01f,-3.11361104e-01f,+1.26688674e-01f,+3.52659523e-02f,-4.75101359e-02f,
-7.32810516e-03f,+2.69226223e-01f,+1.02535561e-01f,+8.55029896e-02f,+1.28696948e-01f,
+5.66488691e-02f,-2.85152406e-01f,+1.88158125e-01f,+2.43760511e-01f,-2.54694223e-01f,
+8.19431990e-02f,-2.70478517e-01f,-1.42123073e-01f,+3.25701267e-01f,+7.58056641e-02f,
+2.34407917e-01f,+2.72881776e-01f,-6.81885853e-02f,-2.73093730e-01f,-4.34645824e-02f,
}; 




// Functions

void k2c_softmax_func(float * x, const size_t size) {
	size_t i;
    float xmax = x[0];
    float sum = 0;
    for (i=0; i < size; ++i) {
        if (x[i]>xmax) {
            xmax = x[i];
        }
    }

    for (i=0; i < size; ++i) {
        x[i] = expf(x[i]-xmax);
    }

    for (i=0; i < size; ++i) {
        sum += x[i];
    }

    sum = 1.0f/sum;
    for ( i=0; i < size; ++i) {
        x[i] = x[i]*sum;
    }
}


void k2c_relu_func(float * x, const size_t size) {
	size_t i;
    for (i=0; i < size; ++i) {
        if (x[i] <= 0.0f) {
            x[i] = 0.0f;
        }
    }
}


void k2c_matmul(float * C, const float * A, const float * B, const size_t outrows,
                const size_t outcols, const size_t innerdim) {
	size_t i,j;
    // make sure output is empty
//    memset(C, 0, outrows*outcols*sizeof(C[0]));

	for (size_t row = 0; row < outrows; ++row) {
	        // Iterate over each column of C
	        for (size_t col = 0; col < outcols; ++col) {
	            // Set each element of C to zero
	            C[row * outcols + col] = 0.0f;
	        }
	    }


    for (i= 0 ; i < outrows; ++i) {
        const size_t outrowidx = i*outcols;
        const size_t inneridx = i*innerdim;
        for (size_t k = 0; k < innerdim; ++k) {
            for (j= 0;  j < outcols; ++j) {
                C[outrowidx+j] += A[inneridx+k] * B[k*outcols+j];
            }
        }
    }
}

void k2c_idx2sub(const size_t idx, size_t * sub, const size_t * shape, const size_t ndim) {

    size_t idx2 = idx;
    for (int i=ndim-1; i>=0; --i) {
        sub[i] = idx2%shape[i];
        idx2 /= shape[i];
    }
}
size_t k2c_sub2idx(const size_t * sub, const size_t * shape, const size_t ndim) {
	size_t i,j;

    size_t idx = 0;
    size_t temp = 0;
    for (i=0; i<ndim; ++i) {
        temp = sub[i];
        for (j=ndim-1; j>i; --j) {
            temp *= shape[j];
        }
        idx += temp;
    }
    return idx;
}

void k2c_dot(k2c_tensor* C, const k2c_tensor* A, const k2c_tensor* B, const size_t * axesA,
             const size_t * axesB, const size_t naxes, const int normalize, float * fwork) {

    size_t permA[K2C_MAX_NDIM];
    size_t permB[K2C_MAX_NDIM];
    size_t prod_axesA = 1;
    size_t prod_axesB = 1;
    size_t free_axesA, free_axesB;
    size_t freeA[K2C_MAX_NDIM];
    size_t freeB[K2C_MAX_NDIM];
    size_t count;
    int isin;
    size_t newshpA[K2C_MAX_NDIM];
    size_t newshpB[K2C_MAX_NDIM];
    const size_t ndimA = A->ndim;
    const size_t ndimB = B->ndim;
    float *reshapeA = &fwork[0];   // temp working storage
    float *reshapeB = &fwork[A->numel];
    size_t Asub[K2C_MAX_NDIM];
    size_t Bsub[K2C_MAX_NDIM];
    size_t i,j;
    // find which axes are free (ie, not being summed over)
    count=0;
    for (i=0; i<ndimA; ++i) {
        isin = 0;
        for (j=0; j<naxes; ++j) {
            if (i==axesA[j]) {
                isin=1;
            }
        }
        if (!isin) {
            freeA[count] = i;
            ++count;
        }
    }
    count=0;
    for (i=0; i<ndimB; ++i) {
        isin = 0;
        for (j=0; j<naxes; ++j) {
            if (i==axesB[j]) {
                isin=1;
            }
        }
        if (!isin) {
            freeB[count] = i;
            ++count;
        }
    }

    // number of elements in inner dimension
    for (i=0; i < naxes; ++i) {
        prod_axesA *= A->shape[axesA[i]];
    }
    for (i=0; i < naxes; ++i) {
        prod_axesB *= B->shape[axesB[i]];
    }
    // number of elements in free dimension
    free_axesA = A->numel/prod_axesA;
    free_axesB = B->numel/prod_axesB;
    // find permutation of axes to get into matmul shape
    for (i=0; i<ndimA-naxes; ++i) {
        permA[i] = freeA[i];
    }
    for (i=ndimA-naxes, j=0; i<ndimA; ++i, ++j) {
        permA[i] = axesA[j];
    }
    for (i=0; i<naxes; ++i) {
        permB[i] = axesB[i];
    }
    for (i=naxes, j=0; i<ndimB; ++i, ++j) {
        permB[i] = freeB[j];
    }



    for (i=0; i<ndimA; ++i) {
        newshpA[i] = A->shape[permA[i]];
    }
    for (i=0; i<ndimB; ++i) {
        newshpB[i] = B->shape[permB[i]];
    }

    // reshape arrays
    for (i=0; i<A->numel; ++i) {
        k2c_idx2sub(i,Asub,A->shape,ndimA);
        for (j=0; j<ndimA; ++j) {
            Bsub[j] = Asub[permA[j]];
        }
        size_t bidx = k2c_sub2idx(Bsub,newshpA,ndimA);
        reshapeA[bidx] = A->array[i];
    }

    for (i=0; i<B->numel; ++i) {
        k2c_idx2sub(i,Bsub,B->shape,ndimB);
        for (j=0; j<ndimB; ++j) {
            Asub[j] = Bsub[permB[j]];
        }
        size_t bidx = k2c_sub2idx(Asub,newshpB,ndimB);
        reshapeB[bidx] = B->array[i];
    }


    if (normalize) {

        float sum;
        float inorm;
        for (i=0; i<free_axesA; ++i) {
            sum = 0;
            for (j=0; j<prod_axesA; ++j) {
                sum += reshapeA[i*prod_axesA + j]*reshapeA[i*prod_axesA + j];
            }
            inorm = 1.0f/sqrtf(sum);
            for (j=0; j<prod_axesA; ++j) {
                reshapeA[i*prod_axesA + j] *= inorm;
            }
        }
        for (i=0; i<free_axesB; ++i) {
            sum = 0;
            for (j=0; j<prod_axesB; ++j) {
                sum += reshapeB[i + free_axesB*j]*reshapeB[i + free_axesB*j];
            }
            inorm = 1.0f/sqrtf(sum);
            for (j=0; j<prod_axesB; ++j) {
                reshapeB[i + free_axesB*j] *= inorm;
            }
        }
    }

    k2c_matmul(C->array, reshapeA, reshapeB, free_axesA,
               free_axesB, prod_axesA);
}



void k2c_bias_add(k2c_tensor* A, const k2c_tensor* b) {
	size_t i,j;

    for (i=0; i<A->numel; i+=b->numel) {
        for (j=0; j<b->numel; ++j) {
            A->array[i+j] += b->array[j];
        }
    }
}

void k2c_affine_matmul(float * C, const float * A, const float * B, const float * d,
                       const size_t outrows,const size_t outcols, const size_t innerdim) {
	size_t i,j;

    // make sure output is empty
    
    // Iterate over each row of C
    for (size_t row = 0; row < outrows; ++row) {
        // Iterate over each column of C
        for (size_t col = 0; col < outcols; ++col) {
            // Set each element of C to zero
            C[row * outcols + col] = 0.0f;
        }
    }

    // memset(C, 0, outrows*outcols*sizeof(C[0]));

    for (i= 0 ; i < outrows; ++i) {
        const size_t outrowidx = i*outcols;
        const size_t inneridx = i*innerdim;
        for (j= 0;  j < outcols; ++j) {
            for (size_t k = 0; k < innerdim; ++k) {
                C[outrowidx+j] += A[inneridx+k] * B[k*outcols+j];
            }
            C[outrowidx+j] += d[j];
        }
    }
}

void k2c_dense(k2c_tensor* output, const k2c_tensor* input, const k2c_tensor* kernel,
               const k2c_tensor* bias, float * fwork) {

    if (input->ndim <=2) {
        size_t outrows;

        if (input->ndim>1) {
            outrows = input->shape[0];
        }
        else {
            outrows = 1;
        }
        const size_t outcols = kernel->shape[1];
        const size_t innerdim = kernel->shape[0];
        const size_t outsize = outrows*outcols;
        k2c_affine_matmul(output->array,input->array,kernel->array,bias->array,
                          outrows,outcols,innerdim);
        // if(flag==0){ 
        //     k2c_hard_sigmoid_func(output->array, output->numel);
        // }
        // if(flag==1){
        //  k2c_relu_func(output->array, output->numel);

        // }
    }
    else {
        const size_t axesA[1] = {input->ndim-1};
        const size_t axesB[1] = {0};
        const size_t naxes = 1;
        const int normalize = 0;

        k2c_dot(output, input, kernel, axesA, axesB, naxes, normalize, fwork);
        k2c_bias_add(output, bias);
        // if(flag==0){
        //     k2c_hard_sigmoid_func(output->array, output->numel);
        // }
        // if(flag==1){
        //  k2c_relu_func(output->array, output->numel);

        // }
    }
}

// ~~~~~~~~~~~~~~~~~~~~~~~~~~~~~~~~~~~~~~~~~~~~~~~~~~~~~~~~~~~~~~~~~~~~~~~~~~~~~~~~~~~~~~~~

void check_best_model(k2c_tensor* fc1_input_input, k2c_tensor* softmax_output) { 
size_t i;

float fc1_output_array[64] = {0}; 
// k2c_tensor fc1_output = {&fc1_output_array[0],1,64,{64, 1, 1, 1, 1}}; 

fc1_output.ndim = 1;
fc1_output.numel = 64;
fc1_output.shape[0] = 64;
fc1_output.shape[1] = 1;
fc1_output.shape[2] = 1;
fc1_output.shape[3] = 1;
fc1_output.shape[4] = 1;

for(i=0 ; i < 64 ; i++){
    fc1_output.array[i] = fc1_output_array[i];
}

// k2c_tensor fc1_kernel = {&fc1_kernel_array[0],2,1024,{16,64, 1, 1, 1}}; 

fc1_kernel.ndim = 2;
fc1_kernel.numel = 1024;
fc1_kernel.shape[0] = 16;
fc1_kernel.shape[1] = 64;
fc1_kernel.shape[2] = 1;
fc1_kernel.shape[3] = 1;
fc1_kernel.shape[4] = 1;

for(i=0 ; i < 1024 ; i++){
    fc1_kernel.array[i] = fc1_kernel_array[i];
}

// k2c_tensor fc1_bias = {&fc1_bias_array[0],1,64,{64, 1, 1, 1, 1}}; 

fc1_bias.ndim = 1;
fc1_bias.numel = 64;
fc1_bias.shape[0] = 64;
fc1_bias.shape[1] = 1;
fc1_bias.shape[2] = 1;
fc1_bias.shape[3] = 1;
fc1_bias.shape[4] = 1;

for(i=0 ; i < 64 ; i++){
    fc1_bias.array[i] = fc1_bias_array[i];
}

float fc1_fwork[1040] = {0}; 

 
float fc2_output_array[32] = {0}; 
// k2c_tensor fc2_output = {&fc2_output_array[0],1,32,{32, 1, 1, 1, 1}}; 

fc2_output.ndim = 1;
fc2_output.numel = 32;
fc2_output.shape[0] = 32;
fc2_output.shape[1] = 1;
fc2_output.shape[2] = 1;
fc2_output.shape[3] = 1;
fc2_output.shape[4] = 1;

for(i=0 ; i < 32 ; i++){
    fc2_output.array[i] = fc2_output_array[i];
}

// k2c_tensor fc2_kernel = {&fc2_kernel_array[0],2,2048,{64,32, 1, 1, 1}}; 

fc2_kernel.ndim = 2;
fc2_kernel.numel = 2048;
fc2_kernel.shape[0] = 64;
fc2_kernel.shape[1] = 32;
fc2_kernel.shape[2] = 1;
fc2_kernel.shape[3] = 1;
fc2_kernel.shape[4] = 1;

for(i=0 ; i < 2048 ; i++){
    fc2_kernel.array[i] = fc2_kernel_array[i];
}


// k2c_tensor fc2_bias = {&fc2_bias_array[0],1,32,{32, 1, 1, 1, 1}}; 

fc2_bias.ndim = 1;
fc2_bias.numel = 32;
fc2_bias.shape[0] = 32;
fc2_bias.shape[1] = 1;
fc2_bias.shape[2] = 1;
fc2_bias.shape[3] = 1;
fc2_bias.shape[4] = 1;

for(i=0 ; i < 32 ; i++){
    fc2_bias.array[i] = fc2_bias_array[i];
}



float fc2_fwork[2112] = {0}; 

 
float fc3_output_array[32] = {0}; 
// k2c_tensor fc3_output = {&fc3_output_array[0],1,32,{32, 1, 1, 1, 1}}; 

fc3_output.ndim = 1;
fc3_output.numel = 32;
fc3_output.shape[0] = 32;
fc3_output.shape[1] = 1;
fc3_output.shape[2] = 1;
fc3_output.shape[3] = 1;
fc3_output.shape[4] = 1;

for(i=0 ; i < 32 ; i++){
    fc3_output.array[i] = fc3_output_array[i];
}




// k2c_tensor fc3_kernel = {&fc3_kernel_array[0],2,1024,{32,32, 1, 1, 1}}; 

fc3_kernel.ndim = 2;
fc3_kernel.numel = 1024;
fc3_kernel.shape[0] = 32;
fc3_kernel.shape[1] = 32;
fc3_kernel.shape[2] = 1;
fc3_kernel.shape[3] = 1;
fc3_kernel.shape[4] = 1;

for(i=0 ; i < 1024 ; i++){
    fc3_kernel.array[i] = fc3_kernel_array[i];
}


// k2c_tensor fc3_bias = {&fc3_bias_array[0],1,32,{32, 1, 1, 1, 1}}; 

fc3_bias.ndim = 1;
fc3_bias.numel = 32;
fc3_bias.shape[0] = 32;
fc3_bias.shape[1] = 1;
fc3_bias.shape[2] = 1;
fc3_bias.shape[3] = 1;
fc3_bias.shape[4] = 1;

for(i=0 ; i < 32 ; i++){
    fc3_bias.array[i] = fc3_bias_array[i];
}



float fc3_fwork[1056] = {0}; 

 
float output_output_array[5] = {0}; 
// k2c_tensor output_output = {&output_output_array[0],1,5,{5,1,1,1,1}}; 

output_output.ndim = 1;
output_output.numel = 5;
output_output.shape[0] = 5;
output_output.shape[1] = 1;
output_output.shape[2] = 1;
output_output.shape[3] = 1;
output_output.shape[4] = 1;

for(i=0 ; i < 5 ; i++){
    output_output.array[i] = output_output_array[i];
}




// k2c_tensor output_kernel = {&output_kernel_array[0],2,160,{32, 5, 1, 1, 1}}; 

output_kernel.ndim = 2;
output_kernel.numel = 160;
output_kernel.shape[0] = 32;
output_kernel.shape[1] = 5;
output_kernel.shape[2] = 1;
output_kernel.shape[3] = 1;
output_kernel.shape[4] = 1;

for(i=0 ; i < 160 ; i++){
    output_kernel.array[i] = output_kernel_array[i];
}



float output_bias_array[5] = {
-2.39876332e-03f,+3.17912139e-02f,-4.63747606e-02f,+3.73997651e-02f,+1.41678844e-02f,
}; 
// k2c_tensor output_bias = {&output_bias_array[0],1,5,{5,1,1,1,1}}; 

output_bias.ndim = 1;
output_bias.numel = 5;
output_bias.shape[0] = 5;
output_bias.shape[1] = 1;
output_bias.shape[2] = 1;
output_bias.shape[3] = 1;
output_bias.shape[4] = 1;

for(i=0 ; i < 5 ; i++){
    output_bias.array[i] = output_bias_array[i];
}



float output_fwork[192] = {0}; 

 
// k2c_dense(&fc1_output,fc1_input_input,&fc1_kernel, 
// 	&fc1_bias,k2c_linear,fc1_fwork); 
k2c_dense(&fc1_output,fc1_input_input,&fc1_kernel, 
	&fc1_bias,fc1_fwork); 

k2c_relu_func(fc1_output.array,fc1_output.numel); 

k2c_tensor relu1_output; 
relu1_output.ndim = fc1_output.ndim; // copy data into output struct 
relu1_output.numel = fc1_output.numel; 

// memcpy(relu1_output.shape,fc1_output.shape,K2C_MAX_NDIM*sizeof(size_t));  
for(i=0;i<K2C_MAX_NDIM;i++)
{
	relu1_output.shape[i] = fc1_output.shape[i];
}

// relu1_output.array = &fc1_output.array[0]; // rename for clarity 
for(i=0;i<relu1_output.numel;i++)
{
	relu1_output.array[i] = fc1_output.array[i];
}

// k2c_dense(&fc2_output,&relu1_output,&fc2_kernel, 
// 	&fc2_bias,k2c_linear,fc2_fwork); 
k2c_dense(&fc2_output,&relu1_output,&fc2_kernel, 
	&fc2_bias,fc2_fwork); 

k2c_relu_func(fc2_output.array,fc2_output.numel); 
k2c_tensor relu2_output; 
relu2_output.ndim = fc2_output.ndim; // copy data into output struct 
relu2_output.numel = fc2_output.numel; 

// memcpy(relu2_output.shape,fc2_output.shape,K2C_MAX_NDIM*sizeof(size_t));  
for(i=0;i<K2C_MAX_NDIM;i++)
{
	relu2_output.shape[i] = fc2_output.shape[i];
}

// relu2_output.array = &fc2_output.array[0]; // rename for clarity 
for(i=0;i<relu2_output.numel;i++)
{
	relu2_output.array[i] = fc2_output.array[i];
}

// k2c_dense(&fc3_output,&relu2_output,&fc3_kernel, 
// 	&fc3_bias,k2c_linear,fc3_fwork); 
k2c_dense(&fc3_output,&relu2_output,&fc3_kernel, 
	&fc3_bias,fc3_fwork); 

k2c_relu_func(fc3_output.array,fc3_output.numel); 
k2c_tensor relu3_output; 
relu3_output.ndim = fc3_output.ndim; // copy data into output struct 
relu3_output.numel = fc3_output.numel; 

// memcpy(relu3_output.shape,fc3_output.shape,K2C_MAX_NDIM*sizeof(size_t));  
for(i=0;i<K2C_MAX_NDIM;i++)
{
	relu3_output.shape[i] = fc3_output.shape[i];
}

// relu3_output.array = &fc3_output.array[0]; // rename for clarity 
for(i=0;i<relu3_output.numel;i++)
{
	relu3_output.array[i] = fc3_output.array[i];
}

// k2c_dense(&output_output,&relu3_output,&output_kernel, 
	// &output_bias,k2c_linear,output_fwork); 
k2c_dense(&output_output,&relu3_output,&output_kernel, 
	&output_bias,output_fwork); 

k2c_softmax_func(output_output.array,output_output.numel); 


softmax_output->ndim = output_output.ndim; // copy data into output struct 
softmax_output->numel = output_output.numel; 

// memcpy(softmax_output->shape,output_output.shape,K2C_MAX_NDIM*sizeof(size_t));  
for(i=0;i<K2C_MAX_NDIM;i++)
{
	softmax_output->shape[i] = output_output.shape[i];
}
// memcpy(softmax_output->array,output_output.array,softmax_output->numel*sizeof(softmax_output->array[0])); 
for(i=0;i<softmax_output->numel;i++)
{
	softmax_output->array[i] = output_output.array[i];
}


} 

void check_best_model_initialize() { 

} 

void check_best_model_terminate() { 

} 
